<?xml version="1.0"?>
<opencv_storage>
<my_svm type_id="opencv-ml-svm">
  <svm_type>C_SVC</svm_type>
  <kernel><type>RBF</type>
    <gamma>1.</gamma></kernel>
  <C>1.</C>
  <term_criteria><epsilon>2.2204460492503131e-16</epsilon>
    <iterations>100</iterations></term_criteria>
  <var_all>303</var_all>
  <var_count>303</var_count>
  <class_count>5</class_count>
  <class_labels type_id="opencv-matrix">
    <rows>1</rows>
    <cols>5</cols>
    <dt>i</dt>
    <data>
      1 2 3 4 5</data></class_labels>
  <sv_total>323</sv_total>
  <support_vectors>
    <_>
      6.61201060e-01 6.61375344e-01 7.27938831e-01 1.33351111e+00
      1.33288884e+00 1.33546662e+00 1.33986664e+00 1.34275556e+00
      1.34782219e+00 1.34813333e+00 1.33893335e+00 1.32951117e+00
      1.32000005e+00 1.31031108e+00 1.30084443e+00 1.29177773e+00
      1.28093338e+00 1.27146661e+00 1.27053332e+00 1.27013338e+00
      1.27022219e+00 1.26982224e+00 1.26675558e+00 1.26062226e+00
      1.25644445e+00 1.25031114e+00 1.23800004e+00 1.21951115e+00
      1.20053339e+00 1.18155551e+00 1.16928887e+00 1.16395557e+00
      1.15919995e+00 1.15386665e+00 1.15217781e+00 1.16208887e+00
      1.17164445e+00 1.18128884e+00 1.19062221e+00 1.18835557e+00
      1.18768895e+00 1.18631113e+00 1.18391109e+00 1.18244445e+00
      1.18022227e+00 1.17746663e+00 1.17626667e+00 1.17524445e+00
      1.17462218e+00 1.17480004e+00 1.17368889e+00 1.17688894e+00
      1.18288887e+00 1.18840003e+00 1.19386661e+00 1.20137775e+00
      1.21022224e+00 1.22013330e+00 1.22924447e+00 1.23062217e+00
      1.21124446e+00 1.19200003e+00 1.17320001e+00 1.15422225e+00
      1.13746667e+00 1.12195551e+00 1.10444450e+00 1.08871114e+00
      1.09595561e+00 1.10457778e+00 1.11444449e+00 1.12346661e+00
      1.13217783e+00 1.13902223e+00 1.14711106e+00 1.15484440e+00
      1.15755558e+00 1.15799999e+00 1.15826666e+00 1.15844440e+00
      1.15671110e+00 1.15066671e+00 1.14537776e+00 1.13893330e+00
      1.13448894e+00 1.13235557e+00 1.13106668e+00 1.12960005e+00
      1.12706661e+00 1.12706661e+00 1.12537777e+00 1.12475550e+00
      1.12431109e+00 1.12440002e+00 1.12208891e+00 1.12333333e+00
      1.12222219e+00 1.11942220e+00 1.11640000e+00 1.11413336e+00
      1.11000001e+00 1.09626663e+00 1.07351112e+00 1.05173337e+00
      1.02919996e+00 1.02355552e+00 1.04444444e+00 1.06395555e+00
      1.08297777e+00 1.10631108e+00 1.13968885e+00 1.17279994e+00
      1.20746672e+00 1.23573339e+00 1.23448884e+00 1.23133337e+00
      1.22800004e+00 1.22497773e+00 1.21951115e+00 1.21231115e+00
      1.20671105e+00 1.20048892e+00 1.19591117e+00 1.19284439e+00
      1.18968892e+00 1.18657780e+00 1.18324447e+00 1.17902219e+00
      1.17515552e+00 1.17084444e+00 1.16488886e+00 1.15568888e+00
      1.14564443e+00 1.13608885e+00 1.12528884e+00 1.11039996e+00
      1.09613335e+00 1.08120000e+00 1.06697774e+00 1.05031109e+00
      1.03284442e+00 1.01600003e+00 9.98488903e-01 9.78222251e-01
      9.56355572e-01 9.35733318e-01 9.14355576e-01 9.06266689e-01
      9.02711093e-01 8.99422228e-01 8.95688891e-01 8.94488871e-01
      8.95155549e-01 9.34311092e-01 9.34666693e-01 9.37022209e-01
      9.41022217e-01 9.48044419e-01 9.50800002e-01 9.62177753e-01
      9.86222208e-01 1.01048887e+00 1.03626668e+00 1.05888891e+00
      1.06915557e+00 1.07684445e+00 1.08826661e+00 1.09568894e+00
      1.09546661e+00 1.09355557e+00 1.09293330e+00 1.09182227e+00
      1.08920002e+00 1.08840001e+00 1.08631110e+00 1.08502221e+00
      1.08977783e+00 1.10004449e+00 1.11000001e+00 1.12075555e+00
      1.13191116e+00 1.14555550e+00 1.15866661e+00 1.17257774e+00
      1.18400002e+00 1.18933332e+00 1.19444442e+00 1.19924450e+00
      1.20444441e+00 1.20746672e+00 1.21017778e+00 1.21191108e+00
      1.21484447e+00 1.20026672e+00 1.18257773e+00 1.16604447e+00
      1.15053332e+00 1.13128889e+00 1.11266673e+00 1.09533334e+00
      1.07586670e+00 1.06653333e+00 1.06368887e+00 1.06017780e+00
      1.05657780e+00 1.05840003e+00 1.06742227e+00 1.07711112e+00
      1.08528888e+00 1.09213328e+00 1.08737779e+00 1.08382225e+00
      1.08111107e+00 1.07693338e+00 1.08204448e+00 1.08515561e+00
      1.08791113e+00 1.09226668e+00 1.11048889e+00 1.13111115e+00
      1.15093338e+00 1.17186666e+00 1.18942225e+00 1.20693338e+00
      1.22355556e+00 1.24093330e+00 1.24964440e+00 1.25537777e+00
      1.25880003e+00 1.26306665e+00 1.26426661e+00 1.26297772e+00
      1.26168895e+00 1.25995553e+00 1.25128889e+00 1.21968889e+00
      1.18866670e+00 1.15639997e+00 1.12906671e+00 1.13302219e+00
      1.13831115e+00 1.14217782e+00 1.14662218e+00 1.16866672e+00
      1.19040000e+00 1.21426666e+00 1.23733330e+00 1.24484444e+00
      1.24960005e+00 1.25306666e+00 1.25635552e+00 1.25555551e+00
      1.25351107e+00 1.24928892e+00 1.24706662e+00 1.23537779e+00
      1.21217775e+00 1.18853331e+00 1.16751111e+00 1.14911115e+00
      1.14995551e+00 1.15013337e+00 1.15262222e+00 1.15457773e+00
      1.18791115e+00 1.21982217e+00 1.25164449e+00 1.28435552e+00
      1.28657782e+00 1.28937781e+00 1.28946662e+00 1.28884447e+00
      1.28742218e+00 1.28191113e+00 1.27853334e+00 1.27413332e+00
      1.26928890e+00 1.26293337e+00 1.25848889e+00 1.25133336e+00
      1.23924446e+00 1.21497774e+00 1.19017780e+00 1.16466665e+00
      1.14591110e+00 1.14288890e+00 1.13964450e+00 1.13546669e+00
      1.13555551e+00 1.15653336e+00 1.17706668e+00 1.19768894e+00
      1.21951115e+00 1.21462226e+00 1.20964444e+00 1.20337772e+00
      1.19742227e+00 1.18693328e+00 1.17528892e+00 1.16315556e+00
      1.15235555e+00 1.14706671e+00 1.14773333e+00</_>
    <_>
      5.16264081e-01 5.14954627e-01 5.59130311e-01 9.71599996e-01
      9.75955546e-01 9.88088906e-01 1.00062227e+00 9.85022247e-01
      9.71066654e-01 9.23688889e-01 8.61288905e-01 8.17155540e-01
      8.19022238e-01 8.20444465e-01 8.49155545e-01 8.79377782e-01
      9.00666654e-01 9.14222240e-01 9.31733310e-01 9.50399995e-01
      9.70577776e-01 9.79777753e-01 9.88399982e-01 9.95333314e-01
      9.99199986e-01 1.00626671e+00 1.01271117e+00 1.02119994e+00
      1.01662219e+00 1.00977778e+00 1.00564444e+00 1.00573337e+00
      1.00111115e+00 9.82755542e-01 9.65377748e-01 9.56311107e-01
      9.49155569e-01 9.50533330e-01 9.59111094e-01 9.66355562e-01
      9.73111093e-01 9.79200006e-01 9.76622224e-01 9.72977757e-01
      9.64844465e-01 9.54444468e-01 9.35733318e-01 8.85955572e-01
      8.32799971e-01 7.91644454e-01 7.49511123e-01 7.21555531e-01
      7.09111094e-01 6.97022200e-01 7.00533330e-01 7.04711139e-01
      7.24711120e-01 7.53155529e-01 7.73511112e-01 7.85022199e-01
      7.96577752e-01 8.03066671e-01 8.09466660e-01 8.22933316e-01
      8.37111115e-01 8.46488893e-01 8.45555544e-01 8.45422208e-01
      8.37466657e-01 8.29599977e-01 8.22888911e-01 8.16355526e-01
      8.13777804e-01 8.17022204e-01 8.19644451e-01 8.21155548e-01
      8.22133362e-01 8.21555555e-01 8.19066644e-01 8.16533327e-01
      8.13244462e-01 8.11777771e-01 8.13644469e-01 8.15199971e-01
      8.18000019e-01 8.21644425e-01 8.23155582e-01 8.24755549e-01
      8.26533318e-01 8.25733304e-01 8.25511098e-01 8.19422245e-01
      8.07955563e-01 7.91466653e-01 7.53688872e-01 7.18444467e-01
      6.91422224e-01 6.68755531e-01 6.61866665e-01 6.67644441e-01
      6.76711082e-01 6.94177806e-01 7.13333309e-01 7.89688885e-01
      8.74044418e-01 9.28533316e-01 9.57555532e-01 9.79866683e-01
      9.73022223e-01 9.66000021e-01 9.66844440e-01 9.68133330e-01
      9.59644437e-01 9.42444444e-01 9.26666677e-01 9.14355576e-01
      9.00355577e-01 9.07599986e-01 9.16844428e-01 9.22133327e-01
      9.24266696e-01 9.23155546e-01 9.09333348e-01 8.95377755e-01
      9.04044449e-01 9.18177783e-01 9.29688871e-01 9.41288888e-01
      9.51600015e-01 9.51333344e-01 9.51822221e-01 9.55511093e-01
      9.60355580e-01 9.69155550e-01 9.79733348e-01 9.93155539e-01
      9.97777760e-01 1.00288892e+00 1.00355554e+00 1.00253332e+00
      1.00440001e+00 1.01368892e+00 1.02115560e+00 1.04617774e+00
      1.07088888e+00 1.08271110e+00 1.08968890e+00 1.09284449e+00
      1.09017777e+00 1.08724439e+00 1.08475554e+00 1.08120000e+00
      1.08142221e+00 1.36711109e+00 1.36399996e+00 1.35928893e+00
      1.35155559e+00 1.32386672e+00 1.29853332e+00 1.26715553e+00
      1.23368883e+00 1.19924450e+00 1.15448892e+00 1.11426663e+00
      1.07231116e+00 1.03582227e+00 1.01213336e+00 1.00062227e+00
      9.90044415e-01 9.80266690e-01 9.70799983e-01 9.74577785e-01
      9.77511108e-01 9.72933352e-01 9.64222193e-01 9.52311099e-01
      9.44666684e-01 9.36399996e-01 9.50888872e-01 9.69155550e-01
      9.74133313e-01 9.69511092e-01 9.61822212e-01 9.43777800e-01
      9.25377786e-01 9.11244452e-01 8.95644426e-01 8.78711104e-01
      8.52977753e-01 8.29733312e-01 8.14533353e-01 7.98266649e-01
      7.74266660e-01 7.48177767e-01 7.27066696e-01 7.17466652e-01
      7.08977759e-01 7.17822194e-01 7.28222251e-01 7.36266673e-01
      7.41466641e-01 7.47155547e-01 7.51111090e-01 7.55422235e-01
      7.73333311e-01 7.92622209e-01 7.88133323e-01 7.79022217e-01
      7.69111097e-01 7.57600009e-01 7.48266637e-01 7.56711125e-01
      7.66444445e-01 7.65600026e-01 7.59555578e-01 7.52933323e-01
      7.39600003e-01 7.28266656e-01 7.16755569e-01 7.06799984e-01
      7.08533347e-01 7.16000021e-01 7.25422204e-01 7.42266655e-01
      7.58533359e-01 7.86577761e-01 8.15199971e-01 8.38311136e-01
      8.55866671e-01 8.70088875e-01 8.71733308e-01 8.74977767e-01
      8.44799995e-01 8.14044416e-01 7.76355565e-01 7.38488913e-01
      7.05466688e-01 6.90488875e-01 6.74888909e-01 6.63999975e-01
      6.52844429e-01 6.56711102e-01 6.70844436e-01 6.92222238e-01
      7.35022247e-01 7.79733360e-01 8.02222252e-01 8.24666679e-01
      8.36888909e-01 8.41022193e-01 8.45155537e-01 8.56177807e-01
      8.65466654e-01 8.64755571e-01 8.64888906e-01 8.50088894e-01
      8.22399974e-01 7.94222236e-01 7.57777750e-01 7.25777805e-01
      7.13511109e-01 7.09866643e-01 7.17377782e-01 7.41288900e-01
      7.64577806e-01 7.97066689e-01 8.28800023e-01 8.63377750e-01
      9.01111126e-01 9.26755548e-01 9.42711115e-01 9.56088901e-01
      9.51777756e-01 9.48622227e-01 9.48444426e-01 9.49911118e-01
      9.50444460e-01 9.47777748e-01 9.46933329e-01 9.47777748e-01
      9.48711097e-01 9.55377758e-01 9.62533355e-01 9.69644427e-01
      9.72844422e-01 9.75866675e-01 9.84000027e-01 9.87644434e-01
      1.00066662e+00 1.01613331e+00 1.03422225e+00 1.05835557e+00
      1.07964444e+00 1.09128892e+00 1.10195553e+00 1.11626661e+00
      1.13555551e+00 1.15840006e+00 1.18853331e+00 1.21755552e+00
      1.22137773e+00 1.22462225e+00 1.22626662e+00</_>
    <_>
      4.63445932e-01 4.67219353e-01 5.03674746e-01 1.00217783e+00
      1.00608885e+00 1.01240003e+00 1.00426662e+00 9.83288884e-01
      9.54177797e-01 9.16933358e-01 8.91955554e-01 8.74977767e-01
      8.64888906e-01 8.61066639e-01 8.46977770e-01 8.29288900e-01
      8.17733347e-01 8.13955545e-01 8.24044466e-01 8.44577789e-01
      8.60844433e-01 8.76711130e-01 8.81688893e-01 8.88622224e-01
      8.89999986e-01 8.94133329e-01 8.89555573e-01 8.83022249e-01
      8.79822195e-01 8.77200007e-01 8.74755561e-01 8.69822204e-01
      8.80133331e-01 8.90933335e-01 8.99777770e-01 9.07688916e-01
      9.13688898e-01 9.18622196e-01 9.15955544e-01 9.14355576e-01
      9.04977798e-01 8.97466660e-01 9.00088906e-01 9.05466676e-01
      9.07822251e-01 9.11866665e-01 9.12622213e-01 9.10000026e-01
      8.95866692e-01 8.74177754e-01 8.18444431e-01 7.65911102e-01
      7.29911089e-01 6.98444426e-01 6.82844460e-01 6.68844461e-01
      6.57377779e-01 6.45777762e-01 6.46444440e-01 6.51644468e-01
      6.72177792e-01 6.91377759e-01 7.08177805e-01 7.20133305e-01
      7.23377764e-01 7.25777805e-01 7.31022239e-01 7.39955544e-01
      7.55999982e-01 7.68888891e-01 7.76888907e-01 7.80844450e-01
      7.79955566e-01 7.78177798e-01 7.76177764e-01 7.73244441e-01
      7.69466639e-01 7.65555561e-01 7.63333321e-01 7.60488868e-01
      7.57822216e-01 7.57288873e-01 7.57422209e-01 7.55822241e-01
      7.54666686e-01 7.53066659e-01 7.51777768e-01 7.49599993e-01
      7.47377753e-01 7.46044457e-01 7.45422244e-01 7.45022237e-01
      7.45244443e-01 7.48933315e-01 7.50577807e-01 7.49333322e-01
      7.45866656e-01 7.43200004e-01 7.42088914e-01 7.41911113e-01
      7.42799997e-01 7.19422221e-01 6.91244423e-01 6.52266681e-01
      6.12888873e-01 5.99733353e-01 5.93999982e-01 5.93822241e-01
      5.94311118e-01 5.98755538e-01 6.04177773e-01 6.25822246e-01
      6.49200022e-01 7.33688891e-01 8.19822252e-01 8.53022218e-01
      8.84311140e-01 8.80311131e-01 8.74311090e-01 8.70977759e-01
      8.62088919e-01 8.50888908e-01 8.37466657e-01 8.36711109e-01
      8.36222231e-01 8.42711091e-01 8.49644423e-01 8.53466690e-01
      8.55822206e-01 8.59466672e-01 8.59022200e-01 8.52133334e-01
      8.46666694e-01 8.47688913e-01 8.46577764e-01 8.45377803e-01
      8.45288873e-01 8.51377785e-01 8.59288871e-01 8.69022250e-01
      8.77422214e-01 8.82399976e-01 8.90399992e-01 8.98355544e-01
      9.04888868e-01 9.04311121e-01 8.99777770e-01 8.87199998e-01
      8.79644454e-01 8.71466696e-01 8.73911083e-01 8.81422222e-01
      8.85599971e-01 8.42533350e-01 8.40399981e-01 8.31733346e-01
      8.16622198e-01 7.97555566e-01 7.70977795e-01 7.42933333e-01
      6.97688878e-01 6.37822211e-01 6.36044443e-01 6.68577790e-01
      7.10222244e-01 7.55866647e-01 7.79066682e-01 7.92355537e-01
      8.30044448e-01 8.78577769e-01 9.14933324e-01 9.48311090e-01
      9.53111112e-01 9.49733317e-01 9.48400021e-01 9.48400021e-01
      9.47066665e-01 9.47733343e-01 9.43288863e-01 9.38622236e-01
      9.35244441e-01 9.32977796e-01 9.33688879e-01 9.34800029e-01
      9.38933313e-01 9.42799985e-01 9.34577763e-01 9.25022244e-01
      8.93599987e-01 8.59333336e-01 8.28000009e-01 7.96222210e-01
      7.91555583e-01 7.86133349e-01 7.80311108e-01 7.74133325e-01
      7.62799978e-01 7.51288891e-01 7.46755540e-01 7.41999984e-01
      7.44088888e-01 7.46133327e-01 7.49422193e-01 7.51111090e-01
      7.51644433e-01 7.50711083e-01 7.49022245e-01 7.47777760e-01
      7.45066643e-01 7.41422236e-01 7.35244453e-01 7.30000019e-01
      7.22533345e-01 7.17333317e-01 7.09955573e-01 7.03777790e-01
      6.93555534e-01 6.87022209e-01 6.85244441e-01 6.87288880e-01
      6.91466689e-01 6.99288905e-01 7.10977793e-01 7.25111127e-01
      7.37377763e-01 7.56755531e-01 7.77288914e-01 8.05111110e-01
      8.33866656e-01 8.56844425e-01 8.72133315e-01 8.80088866e-01
      8.79777789e-01 8.71022224e-01 8.53422225e-01 8.26355577e-01
      7.90577769e-01 7.55822241e-01 7.23200023e-01 6.97955549e-01
      6.80088878e-01 6.63866639e-01 6.49333358e-01 6.42400026e-01
      6.42444432e-01 6.55688882e-01 6.78711116e-01 7.06444442e-01
      7.36933351e-01 7.59066641e-01 7.79066682e-01 7.90711105e-01
      7.99511135e-01 8.08444440e-01 8.14933360e-01 8.16933334e-01
      8.14933360e-01 8.08488905e-01 8.01511109e-01 7.86311090e-01
      7.75111139e-01 7.45288908e-01 7.17288911e-01 6.84755564e-01
      6.53377771e-01 6.38488889e-01 6.22977793e-01 6.22888863e-01
      6.19688869e-01 6.25199974e-01 6.29733324e-01 6.48977757e-01
      6.71599984e-01 7.22044468e-01 7.71911085e-01 8.13600004e-01
      8.50711107e-01 8.59955549e-01 8.67511094e-01 8.65111113e-01
      8.64488900e-01 8.75777781e-01 8.92533362e-01 9.28088903e-01
      9.58888888e-01 9.70577776e-01 9.78888869e-01 9.72622216e-01
      9.68711138e-01 9.70133305e-01 9.75466669e-01 9.90355551e-01
      1.00053334e+00 1.00551116e+00 1.00884449e+00 1.01040006e+00
      1.01400006e+00 1.01986670e+00 1.03511107e+00 1.05817783e+00
      1.08653331e+00 1.11746669e+00 1.13364446e+00</_>
    <_>
      4.29876417e-01 4.30418462e-01 4.85573322e-01 6.41555548e-01
      6.43466651e-01 6.45688891e-01 6.50088906e-01 6.52844429e-01
      6.57377779e-01 6.64311111e-01 6.72444463e-01 6.84400022e-01
      7.03644454e-01 7.22488880e-01 7.38755584e-01 7.55911112e-01
      7.64222205e-01 7.70799994e-01 7.75555551e-01 7.80488908e-01
      7.85822213e-01 7.91866660e-01 7.97822237e-01 8.04044425e-01
      8.10933352e-01 8.15866649e-01 8.16266656e-01 8.15822244e-01
      8.17822218e-01 8.20222199e-01 8.22622240e-01 8.23866665e-01
      8.25288892e-01 8.26622248e-01 8.28488886e-01 8.32755566e-01
      8.37955534e-01 8.40222239e-01 8.41866672e-01 8.44622195e-01
      8.47822249e-01 8.51911128e-01 8.48177791e-01 8.43955576e-01
      8.28622222e-01 8.03288877e-01 7.76133358e-01 7.43600011e-01
      7.11733341e-01 6.95244431e-01 6.81911111e-01 6.78577781e-01
      6.85555577e-01 6.94266677e-01 7.00622201e-01 7.08711088e-01
      7.19555557e-01 7.33066678e-01 7.44844437e-01 7.57644415e-01
      7.68622220e-01 7.76622236e-01 7.83822238e-01 7.85866678e-01
      7.84044445e-01 7.82622218e-01 7.79955566e-01 7.77511120e-01
      7.76755571e-01 7.75377750e-01 7.73866653e-01 7.72666693e-01
      7.71822214e-01 7.71511137e-01 7.70533323e-01 7.69511104e-01
      7.68755555e-01 7.67777801e-01 7.67822206e-01 7.67955542e-01
      7.69288898e-01 7.69111097e-01 7.67333329e-01 7.64666677e-01
      7.63244450e-01 7.63777792e-01 7.62266695e-01 7.61066675e-01
      7.59644449e-01 7.43466675e-01 7.27511108e-01 7.03599989e-01
      6.76311135e-01 6.56533360e-01 6.60533309e-01 6.66311085e-01
      6.86533332e-01 7.08977759e-01 7.32622206e-01 7.56977797e-01
      7.80977786e-01 8.08088899e-01 8.32711101e-01 8.33733320e-01
      8.30977798e-01 8.26888859e-01 8.20488870e-01 8.16399992e-01
      8.16933334e-01 8.18177760e-01 8.19688916e-01 8.20088863e-01
      8.20044458e-01 8.18222225e-01 8.16355526e-01 8.13555539e-01
      8.11288893e-01 8.08355570e-01 8.07422221e-01 8.04533362e-01
      8.00355554e-01 7.98399985e-01 7.95599997e-01 7.93911099e-01
      7.91377783e-01 7.87822247e-01 7.85155535e-01 7.80711114e-01
      7.74888873e-01 7.64666677e-01 7.53688872e-01 7.39244461e-01
      7.22266674e-01 7.08622217e-01 6.95244431e-01 6.85466647e-01
      6.82755530e-01 6.81599975e-01 6.85822248e-01 6.88977778e-01
      6.90133333e-01 6.87911093e-01 6.86088860e-01 7.07377791e-01
      7.30577767e-01 7.19155550e-01 6.95599973e-01 6.80488884e-01
      6.77066684e-01 6.75688863e-01 7.26133347e-01 7.77022243e-01
      7.93422222e-01 7.34622240e-01 7.36533344e-01 7.41244435e-01
      7.47600019e-01 7.31866658e-01 7.13155568e-01 6.98666692e-01
      6.81599975e-01 6.71155572e-01 6.72488868e-01 6.74799979e-01
      6.75866663e-01 6.77155554e-01 6.81466639e-01 6.89999998e-01
      6.97777748e-01 7.10622251e-01 7.22666681e-01 7.28399992e-01
      7.33111084e-01 7.40177751e-01 7.46177793e-01 7.50755548e-01
      7.57066667e-01 7.62399971e-01 7.66799986e-01 7.71511137e-01
      7.78488874e-01 7.86400020e-01 7.92711139e-01 7.97999978e-01
      8.03155541e-01 8.07066679e-01 8.09244454e-01 8.03955555e-01
      7.87777781e-01 7.74266660e-01 7.54577756e-01 7.35688865e-01
      7.31822193e-01 7.30533361e-01 7.29555547e-01 7.30755568e-01
      7.30088890e-01 7.29244471e-01 7.28266656e-01 7.30355561e-01
      7.34577775e-01 7.37600029e-01 7.39822209e-01 7.41199970e-01
      7.40088880e-01 7.39288867e-01 7.37600029e-01 7.36755550e-01
      7.32844472e-01 7.24311113e-01 7.17911124e-01 7.17466652e-01
      7.17155576e-01 7.23822236e-01 7.31511116e-01 7.40711093e-01
      7.53377795e-01 7.64933348e-01 7.86222219e-01 8.06533337e-01
      8.24755549e-01 8.42933357e-01 8.56622219e-01 8.61733317e-01
      8.66222203e-01 8.67288888e-01 8.67555559e-01 8.67155552e-01
      8.66177797e-01 8.65599990e-01 8.66088867e-01 8.66177797e-01
      8.64799976e-01 8.63777757e-01 8.45111132e-01 8.17377806e-01
      7.88266659e-01 7.62977779e-01 7.35599995e-01 7.20088899e-01
      7.03999996e-01 7.04711139e-01 7.15822220e-01 7.30755568e-01
      7.54533350e-01 7.80933321e-01 7.92266667e-01 8.04488897e-01
      8.10977757e-01 8.14400017e-01 8.16888869e-01 8.13555539e-01
      8.10488880e-01 8.05733323e-01 7.99199998e-01 7.95866668e-01
      7.91866660e-01 7.86533356e-01 7.72088885e-01 7.59555578e-01
      7.36355543e-01 7.14044452e-01 6.94000006e-01 6.80088878e-01
      6.69377804e-01 6.77866638e-01 6.88355565e-01 7.04933345e-01
      7.21777797e-01 7.46133327e-01 7.71333337e-01 7.95777798e-01
      8.01288903e-01 8.05955529e-01 7.99911082e-01 7.92800009e-01
      7.87999988e-01 7.86844432e-01 7.85911083e-01 7.82711089e-01
      7.78355539e-01 7.76799977e-01 7.75200009e-01 7.71066666e-01
      7.62888908e-01 7.57111132e-01 7.43111134e-01 7.29911089e-01
      7.18888879e-01 7.10711122e-01 7.00711131e-01 6.87066674e-01
      6.78444445e-01 6.81733310e-01 6.89866662e-01 7.16888905e-01
      7.54533350e-01 7.83911109e-01 8.01511109e-01 8.17066669e-01
      8.05688918e-01 7.93555558e-01 7.90622234e-01</_>
    <_>
      4.44285840e-01 4.42214727e-01 4.95802701e-01 8.15911114e-01
      8.15999985e-01 8.04311097e-01 7.91333318e-01 7.78311133e-01
      7.76222229e-01 7.77777791e-01 7.81244457e-01 7.84666657e-01
      7.88222194e-01 7.93688893e-01 7.96222210e-01 7.91377783e-01
      7.85866678e-01 7.79555559e-01 7.80888915e-01 7.82755554e-01
      7.85244465e-01 7.89022207e-01 7.97777772e-01 8.06044459e-01
      8.09111118e-01 8.05599988e-01 8.00444424e-01 7.97688901e-01
      8.06977749e-01 8.17377806e-01 8.25911105e-01 8.28622222e-01
      8.28577757e-01 8.30177784e-01 8.31155539e-01 8.31822217e-01
      8.33288908e-01 8.33155572e-01 8.32222223e-01 8.32755566e-01
      8.32133353e-01 8.29200029e-01 8.24844420e-01 8.21600020e-01
      8.21155548e-01 8.20488870e-01 8.20177794e-01 8.23822200e-01
      8.31511140e-01 8.39066684e-01 8.45200002e-01 8.47066641e-01
      8.47066641e-01 8.48133326e-01 8.23644459e-01 7.98222244e-01
      7.72266686e-01 7.46355534e-01 7.20266640e-01 6.94533348e-01
      6.77466691e-01 6.76044464e-01 6.72133327e-01 6.71999991e-01
      6.81999981e-01 6.92666650e-01 7.02533305e-01 7.14888871e-01
      7.27777779e-01 7.39866674e-01 7.48977780e-01 7.56933331e-01
      7.63911128e-01 7.68444419e-01 7.69599974e-01 7.70177782e-01
      7.70888865e-01 7.70088911e-01 7.69155562e-01 7.67955542e-01
      7.65866637e-01 7.64444470e-01 7.61955559e-01 7.62222230e-01
      7.63511121e-01 7.65022218e-01 7.64800012e-01 7.63688862e-01
      7.62888908e-01 7.61377752e-01 7.60622203e-01 7.58844435e-01
      7.58533359e-01 7.58622229e-01 7.59511113e-01 7.59999990e-01
      7.60933340e-01 7.60355532e-01 7.59333313e-01 7.51466691e-01
      7.25777805e-01 7.00533330e-01 6.73911095e-01 6.67822242e-01
      6.56933308e-01 6.50799990e-01 6.65066659e-01 6.87466681e-01
      7.08444417e-01 7.39733338e-01 7.73511112e-01 8.10444474e-01
      8.39822233e-01 8.52133334e-01 8.64977777e-01 8.78933311e-01
      8.75599980e-01 8.73600006e-01 8.71200025e-01 8.65022242e-01
      8.57288897e-01 8.49600017e-01 8.44044447e-01 8.44133317e-01
      8.43466640e-01 8.42711091e-01 8.42000008e-01 8.42133343e-01
      8.41288865e-01 8.39244425e-01 8.36577773e-01 8.33288908e-01
      8.22222233e-01 8.06844473e-01 7.91955531e-01 7.78488874e-01
      7.70266652e-01 7.62133360e-01 7.51555562e-01 7.37377763e-01
      7.22222209e-01 7.06666648e-01 7.02933311e-01 7.01733351e-01
      6.99822247e-01 7.06666648e-01 7.18088865e-01 7.29155540e-01
      7.39422202e-01 7.41733313e-01 7.45733321e-01 7.48666644e-01
      7.49288917e-01 7.75422215e-01 7.75644422e-01 8.07244420e-01
      8.44044447e-01 8.81644428e-01 8.93999994e-01 8.94133329e-01
      8.93466651e-01 8.89244437e-01 8.79599988e-01 8.66888881e-01
      8.57822239e-01 8.43422234e-01 8.32577765e-01 8.19466650e-01
      8.00400019e-01 7.79644430e-01 7.58222222e-01 7.46622205e-01
      7.43200004e-01 7.38888860e-01 7.37466693e-01 7.43377805e-01
      7.47555554e-01 7.52577782e-01 7.67688870e-01 7.81466663e-01
      7.96488881e-01 8.03688884e-01 8.06133330e-01 8.10400009e-01
      8.11955571e-01 8.13600004e-01 8.14666688e-01 8.16488862e-01
      8.19066644e-01 8.22577775e-01 8.25422227e-01 8.20933342e-01
      8.13199997e-01 8.08177769e-01 7.95066655e-01 7.79155552e-01
      7.63288915e-01 7.51866639e-01 7.46222198e-01 7.40755558e-01
      7.35377789e-01 7.36622214e-01 7.37111092e-01 7.38799989e-01
      7.38577783e-01 7.40311086e-01 7.41111100e-01 7.42799997e-01
      7.42444456e-01 7.43200004e-01 7.43066669e-01 7.42355585e-01
      7.41066694e-01 7.39022195e-01 7.32977808e-01 7.26133347e-01
      7.19111085e-01 7.24133313e-01 7.29600012e-01 7.35511124e-01
      7.46044457e-01 7.61644423e-01 7.75777757e-01 7.91111112e-01
      8.06177795e-01 8.22711110e-01 8.37688863e-01 8.46088886e-01
      8.53466690e-01 8.62666667e-01 8.62844467e-01 8.64799976e-01
      8.64933312e-01 8.66488874e-01 8.68133307e-01 8.70800018e-01
      8.69733334e-01 8.63466680e-01 8.58622193e-01 8.50444436e-01
      8.18311095e-01 7.86800027e-01 7.54533350e-01 7.36977756e-01
      7.23244429e-01 7.07777798e-01 7.10755527e-01 7.27066696e-01
      7.41866648e-01 7.57511139e-01 7.70577788e-01 7.84666657e-01
      7.96977758e-01 8.00444424e-01 8.05288911e-01 8.06488872e-01
      8.06311131e-01 8.01377773e-01 7.96977758e-01 7.89422214e-01
      7.80755579e-01 7.71333337e-01 7.60800004e-01 7.45955527e-01
      7.32266665e-01 7.18355536e-01 6.96888864e-01 6.76266670e-01
      6.56755567e-01 6.58044457e-01 6.69600010e-01 6.79777801e-01
      6.99688911e-01 7.31199980e-01 7.62000024e-01 7.88177788e-01
      7.94977784e-01 8.00177753e-01 8.08000028e-01 8.04711103e-01
      8.00444424e-01 7.97244430e-01 7.93644428e-01 7.87866652e-01
      7.83599973e-01 7.77911127e-01 7.69955575e-01 7.61155546e-01
      7.54000008e-01 7.43066669e-01 7.31377780e-01 7.20933318e-01
      7.18800008e-01 7.18488872e-01 7.17199981e-01 7.22000003e-01
      7.31777787e-01 7.40755558e-01 7.52577782e-01 7.68933356e-01
      7.85911083e-01 8.00844431e-01 8.00622225e-01</_>
    <_>
      6.45723581e-01 6.49474323e-01 7.34788656e-01 1.24004447e+00
      1.23968887e+00 1.21346664e+00 1.18306673e+00 1.15266669e+00
      1.12697780e+00 1.10546672e+00 1.08319998e+00 1.07448888e+00
      1.09200001e+00 1.10804439e+00 1.12666667e+00 1.14595556e+00
      1.16777778e+00 1.18617773e+00 1.18231106e+00 1.17346668e+00
      1.16368890e+00 1.16159999e+00 1.16648889e+00 1.17017782e+00
      1.17217779e+00 1.16919994e+00 1.16546667e+00 1.16195560e+00
      1.15773332e+00 1.15404439e+00 1.15008891e+00 1.14995551e+00
      1.15186667e+00 1.15262222e+00 1.15555561e+00 1.15982223e+00
      1.16457772e+00 1.17053330e+00 1.17928886e+00 1.18959999e+00
      1.20004439e+00 1.21311116e+00 1.22720003e+00 1.24119997e+00
      1.23146665e+00 1.21502221e+00 1.19777775e+00 1.17102218e+00
      1.13404441e+00 1.09644449e+00 1.06662226e+00 1.06111109e+00
      1.05693328e+00 1.05079997e+00 1.06791115e+00 1.08462226e+00
      1.10284448e+00 1.11346662e+00 1.12164450e+00 1.12955558e+00
      1.13982224e+00 1.15328884e+00 1.16799998e+00 1.17795551e+00
      1.17519999e+00 1.17271113e+00 1.17048883e+00 1.16786671e+00
      1.16502225e+00 1.16275561e+00 1.16106665e+00 1.15848887e+00
      1.15662217e+00 1.15435553e+00 1.15040004e+00 1.14808893e+00
      1.14582217e+00 1.14582217e+00 1.14604449e+00 1.14608884e+00
      1.14786673e+00 1.14924443e+00 1.15053332e+00 1.14995551e+00
      1.15048885e+00 1.14893329e+00 1.15120006e+00 1.15502226e+00
      1.15951109e+00 1.16186666e+00 1.14626670e+00 1.13084447e+00
      1.11497784e+00 1.09253335e+00 1.06453335e+00 1.03795552e+00
      1.04111111e+00 1.06355560e+00 1.08737779e+00 1.11364448e+00
      1.14675558e+00 1.18137777e+00 1.21457779e+00 1.24768889e+00
      1.28075552e+00 1.31373334e+00 1.31564450e+00 1.30866671e+00
      1.30213332e+00 1.29604447e+00 1.29106665e+00 1.28559995e+00
      1.28133333e+00 1.27657783e+00 1.27155554e+00 1.26826668e+00
      1.26257777e+00 1.25408888e+00 1.24871111e+00 1.24586666e+00
      1.24617779e+00 1.24595559e+00 1.24244440e+00 1.23764443e+00
      1.23155558e+00 1.22524440e+00 1.21346664e+00 1.20324445e+00
      1.19280005e+00 1.18044448e+00 1.17040002e+00 1.15906668e+00
      1.14746666e+00 1.13542223e+00 1.12431109e+00 1.11124444e+00
      1.09737778e+00 1.08115554e+00 1.06395555e+00 1.03177774e+00
      9.97733355e-01 9.67688918e-01 9.54622209e-01 9.48400021e-01
      9.39999998e-01 9.35155571e-01 9.32133317e-01 9.29199994e-01
      9.24444437e-01 9.18755531e-01 9.13422227e-01 9.08088863e-01
      9.07599986e-01 1.48146665e+00 1.48111117e+00 1.45444441e+00
      1.42324448e+00 1.39297783e+00 1.36102223e+00 1.33097780e+00
      1.30035555e+00 1.27102220e+00 1.24297774e+00 1.21493328e+00
      1.18857777e+00 1.17222226e+00 1.15755558e+00 1.14035559e+00
      1.15435553e+00 1.17444444e+00 1.19422221e+00 1.20337772e+00
      1.20466661e+00 1.20773339e+00 1.20866668e+00 1.20888889e+00
      1.20928884e+00 1.21004450e+00 1.21879995e+00 1.22742224e+00
      1.23724449e+00 1.24164450e+00 1.24462223e+00 1.24715555e+00
      1.24457777e+00 1.23604441e+00 1.22786665e+00 1.21519995e+00
      1.19293332e+00 1.17328894e+00 1.15044439e+00 1.13564444e+00
      1.12137783e+00 1.10648894e+00 1.09728885e+00 1.09208894e+00
      1.08679998e+00 1.08271110e+00 1.08080006e+00 1.07640004e+00
      1.07631111e+00 1.08146667e+00 1.08502221e+00 1.09004450e+00
      1.08893335e+00 1.08644450e+00 1.08577776e+00 1.07871115e+00
      1.07173336e+00 1.06351113e+00 1.06177783e+00 1.06444442e+00
      1.06760001e+00 1.07315552e+00 1.08888888e+00 1.10502219e+00
      1.12093329e+00 1.14786673e+00 1.17511106e+00 1.20328891e+00
      1.22417784e+00 1.24084449e+00 1.25688887e+00 1.27133334e+00
      1.27746665e+00 1.28355551e+00 1.28933334e+00 1.29191113e+00
      1.29297781e+00 1.29471111e+00 1.29382217e+00 1.29120004e+00
      1.28968894e+00 1.26768887e+00 1.23128891e+00 1.19613338e+00
      1.15986669e+00 1.12884450e+00 1.09640002e+00 1.06813335e+00
      1.07760000e+00 1.08666670e+00 1.09688890e+00 1.12271106e+00
      1.15315557e+00 1.18111110e+00 1.19875550e+00 1.20582223e+00
      1.21151114e+00 1.21653330e+00 1.21702218e+00 1.21773338e+00
      1.21702218e+00 1.21182227e+00 1.20688891e+00 1.20168889e+00
      1.18586671e+00 1.16688883e+00 1.14724445e+00 1.12360001e+00
      1.09248888e+00 1.06177783e+00 1.04155552e+00 1.05075550e+00
      1.05915558e+00 1.06724441e+00 1.10382223e+00 1.13822222e+00
      1.17444444e+00 1.19444442e+00 1.21022224e+00 1.22488892e+00
      1.22071111e+00 1.19657779e+00 1.17120004e+00 1.15124440e+00
      1.13693333e+00 1.12524450e+00 1.11191106e+00 1.10044444e+00
      1.08733332e+00 1.07635558e+00 1.05920005e+00 1.04386663e+00
      1.02680004e+00 1.00435555e+00 9.80977774e-01 9.55022216e-01
      9.30355549e-01 9.14488912e-01 8.96844447e-01 8.82622242e-01
      8.84088874e-01 8.91022205e-01 8.96311104e-01 9.05466676e-01
      9.16133344e-01 9.27244425e-01 9.33733344e-01 9.37822223e-01
      9.40888882e-01 9.43466663e-01 9.43199992e-01</_>
    <_>
      4.38907534e-01 4.38563317e-01 4.85097349e-01 8.38400006e-01
      8.35777760e-01 8.14622223e-01 7.90844440e-01 7.75511086e-01
      7.89288878e-01 8.02488863e-01 8.11200023e-01 8.04533362e-01
      7.96844423e-01 7.89022207e-01 7.78844416e-01 7.66933322e-01
      7.62666643e-01 7.64133334e-01 7.64933348e-01 7.74533331e-01
      7.89911091e-01 8.03422213e-01 8.10355544e-01 8.12622249e-01
      8.17022204e-01 8.19333315e-01 8.22000027e-01 8.24755549e-01
      8.27466667e-01 8.30977798e-01 8.33155572e-01 8.34622204e-01
      8.36488903e-01 8.37911129e-01 8.39911103e-01 8.41111124e-01
      8.41600001e-01 8.40977788e-01 8.40533316e-01 8.38488877e-01
      8.35555553e-01 8.33422244e-01 8.31600010e-01 8.30666661e-01
      8.30622196e-01 8.31733346e-01 8.35333347e-01 8.38666677e-01
      8.33288908e-01 8.24844420e-01 8.17200005e-01 7.87644446e-01
      7.55288899e-01 7.23911107e-01 6.97866678e-01 6.72311127e-01
      6.50088906e-01 6.52977765e-01 6.54533327e-01 6.59288883e-01
      6.74533308e-01 6.88577771e-01 7.01466680e-01 7.10266650e-01
      7.19288886e-01 7.29066670e-01 7.37244427e-01 7.46888876e-01
      7.52222240e-01 7.56711125e-01 7.59688914e-01 7.60711133e-01
      7.59955585e-01 7.58533359e-01 7.55866647e-01 7.52222240e-01
      7.50311136e-01 7.47466683e-01 7.44577765e-01 7.42222250e-01
      7.41999984e-01 7.42622197e-01 7.42444456e-01 7.38488913e-01
      7.33822227e-01 7.30888903e-01 7.31422246e-01 7.33288884e-01
      7.34977782e-01 7.39733338e-01 7.45555580e-01 7.47733355e-01
      7.46933341e-01 7.46711135e-01 7.29288876e-01 7.04577804e-01
      6.78844452e-01 6.73555553e-01 6.74933314e-01 6.76888883e-01
      6.92488909e-01 7.09422231e-01 7.28666663e-01 7.51333356e-01
      7.77511120e-01 8.01377773e-01 8.19511116e-01 8.37511122e-01
      8.50799978e-01 8.41511130e-01 8.33911121e-01 8.26844454e-01
      8.25511098e-01 8.24933350e-01 8.24044466e-01 8.24355543e-01
      8.24222207e-01 8.20933342e-01 8.13333333e-01 8.05777788e-01
      8.02177787e-01 8.00044417e-01 7.97866642e-01 8.02044451e-01
      8.07244420e-01 8.13333333e-01 8.08044434e-01 8.02222252e-01
      7.95955539e-01 7.84266651e-01 7.71911085e-01 7.59955585e-01
      7.45599985e-01 7.29688883e-01 7.16799974e-01 7.02977777e-01
      6.88755572e-01 6.81644440e-01 6.83955550e-01 6.86222196e-01
      6.96977794e-01 7.15511084e-01 7.34799981e-01 7.53244460e-01
      7.76355565e-01 7.96044469e-01 7.84844458e-01 7.57644415e-01
      7.32888877e-01 7.14977801e-01 7.05377758e-01 6.88977778e-01
      6.90577805e-01 6.17955565e-01 6.19199991e-01 6.21022224e-01
      6.24444425e-01 6.29333317e-01 6.55688882e-01 6.82577789e-01
      7.05822229e-01 7.26044416e-01 7.45688915e-01 7.62088895e-01
      7.73066640e-01 7.85155535e-01 7.92800009e-01 7.96444416e-01
      8.01199973e-01 8.05688918e-01 8.11333358e-01 8.15422237e-01
      8.23244452e-01 8.33466649e-01 8.41466665e-01 8.29777777e-01
      8.15822244e-01 8.00488889e-01 7.80177772e-01 7.58444428e-01
      7.39288867e-01 7.37511098e-01 7.34622240e-01 7.32577801e-01
      7.35333323e-01 7.36666679e-01 7.38711119e-01 7.40577757e-01
      7.43466675e-01 7.47155547e-01 7.53600001e-01 7.61688888e-01
      7.73422241e-01 7.90888906e-01 8.09955537e-01 8.26088905e-01
      8.45066667e-01 8.64488900e-01 8.57777774e-01 8.47199976e-01
      8.34311128e-01 8.27688873e-01 8.19288909e-01 8.14888895e-01
      8.13511133e-01 8.13288867e-01 8.09688866e-01 7.89155543e-01
      7.69733310e-01 7.52355576e-01 7.48933315e-01 7.44799972e-01
      7.44444430e-01 7.47955561e-01 7.53288865e-01 7.53111124e-01
      7.48888910e-01 7.44044423e-01 7.41466641e-01 7.39066660e-01
      7.39333332e-01 7.38711119e-01 7.39644468e-01 7.41199970e-01
      7.39466667e-01 7.39733338e-01 7.37644434e-01 7.33688891e-01
      7.28799999e-01 7.25377798e-01 7.31199980e-01 7.36577749e-01
      7.43466675e-01 7.57377803e-01 7.70488918e-01 7.84488916e-01
      8.04266691e-01 8.22933316e-01 8.38044465e-01 8.47377777e-01
      8.57422233e-01 8.62488866e-01 8.63600016e-01 8.64844441e-01
      8.66444468e-01 8.67555559e-01 8.68311107e-01 8.67555559e-01
      8.66844416e-01 8.66533339e-01 8.45066667e-01 8.24400008e-01
      8.01199973e-01 7.72177756e-01 7.42622197e-01 7.14399993e-01
      7.11555541e-01 7.07911134e-01 7.10622251e-01 7.34133363e-01
      7.55911112e-01 7.75244415e-01 7.83511102e-01 7.92266667e-01
      7.98311114e-01 7.96533346e-01 7.96133339e-01 7.92800009e-01
      7.88711131e-01 7.84044445e-01 7.78977752e-01 7.73333311e-01
      7.68266678e-01 7.56488860e-01 7.41599977e-01 7.28977799e-01
      7.05333352e-01 6.80444419e-01 6.58488870e-01 6.63288891e-01
      6.68622196e-01 6.77333355e-01 7.06399977e-01 7.32711136e-01
      7.59822249e-01 7.81377792e-01 8.02044451e-01 8.15911114e-01
      8.15911114e-01 8.15466642e-01 8.12888861e-01 8.08088899e-01
      8.03866684e-01 7.98666656e-01 7.93777764e-01 7.88222194e-01
      7.80933321e-01 7.71288872e-01 7.62222230e-01 7.45822251e-01
      7.29111135e-01 7.09911108e-01 7.11111128e-01</_>
    <_>
      4.40654635e-01 4.39974904e-01 4.98001039e-01 7.88666666e-01
      7.82800019e-01 7.62977779e-01 7.45599985e-01 7.29777753e-01
      7.18666673e-01 7.18533337e-01 7.26088881e-01 7.25955546e-01
      7.21822202e-01 7.17955530e-01 7.11600006e-01 7.08577752e-01
      7.26888895e-01 7.46044457e-01 7.60177791e-01 7.73244441e-01
      7.82088876e-01 7.88488865e-01 7.94044435e-01 7.98533320e-01
      8.02711129e-01 8.10044467e-01 8.17111135e-01 8.23066652e-01
      8.27155530e-01 8.29555571e-01 8.27466667e-01 8.26355577e-01
      8.31200004e-01 8.35600019e-01 8.41199994e-01 8.45688879e-01
      8.49555552e-01 8.53066683e-01 8.54933321e-01 8.56488883e-01
      8.56533349e-01 8.57333362e-01 8.59422207e-01 8.59200001e-01
      8.59466672e-01 8.59822214e-01 8.61155570e-01 8.62222195e-01
      8.62311125e-01 8.62577796e-01 8.44133317e-01 8.24044466e-01
      7.90755570e-01 7.53288865e-01 7.18222201e-01 6.96088910e-01
      6.74977779e-01 6.66666687e-01 6.58355534e-01 6.62622213e-01
      6.68088913e-01 6.77733362e-01 6.90355539e-01 7.03777790e-01
      7.16000021e-01 7.30044425e-01 7.35422194e-01 7.41911113e-01
      7.51022220e-01 7.61377752e-01 7.68577754e-01 7.72577763e-01
      7.76533306e-01 7.75600016e-01 7.75200009e-01 7.74266660e-01
      7.73155570e-01 7.72488892e-01 7.70666659e-01 7.69599974e-01
      7.71066666e-01 7.71600008e-01 7.71733344e-01 7.72933304e-01
      7.73955584e-01 7.75377750e-01 7.73866653e-01 7.68622220e-01
      7.65200019e-01 7.64533341e-01 7.64444470e-01 7.62711108e-01
      7.62044430e-01 7.59644449e-01 7.59155571e-01 7.58444428e-01
      7.58800030e-01 7.59111106e-01 7.56933331e-01 7.56222248e-01
      7.36888885e-01 7.15955555e-01 6.88977778e-01 6.54622197e-01
      6.37866676e-01 6.41288877e-01 6.45733356e-01 6.63377762e-01
      6.80711091e-01 7.01422215e-01 7.21644461e-01 7.48311102e-01
      7.76933312e-01 8.07377756e-01 8.35911095e-01 8.66622210e-01
      8.64044428e-01 8.62088919e-01 8.61333311e-01 8.61599982e-01
      8.61422241e-01 8.60311091e-01 8.58888865e-01 8.57066691e-01
      8.55599999e-01 8.53600025e-01 8.53200018e-01 8.52222204e-01
      8.51422250e-01 8.51066649e-01 8.48800004e-01 8.47111106e-01
      8.42266679e-01 8.37822199e-01 8.33644450e-01 8.29511106e-01
      8.25644433e-01 8.20800006e-01 8.15244436e-01 8.09199989e-01
      8.05377781e-01 7.97288895e-01 7.89200008e-01 7.80933321e-01
      7.73599982e-01 7.62088895e-01 7.45955527e-01 7.30400026e-01
      7.17199981e-01 7.06488907e-01 6.93466663e-01 6.81599975e-01
      6.77777767e-01 7.99688876e-01 7.90133357e-01 7.59288907e-01
      7.32133329e-01 7.15155542e-01 6.99688911e-01 6.86888874e-01
      6.74533308e-01 6.79688871e-01 7.00133324e-01 7.17866659e-01
      7.32844472e-01 7.48444438e-01 7.56755531e-01 7.64800012e-01
      7.70933330e-01 7.75866687e-01 7.78444469e-01 7.78755546e-01
      7.79955566e-01 7.86177754e-01 7.90577769e-01 8.03244472e-01
      8.12577784e-01 8.25022221e-01 8.38000000e-01 8.53777766e-01
      8.75822246e-01 8.94444466e-01 8.80933344e-01 8.67822230e-01
      8.42222214e-01 8.14533353e-01 7.91244447e-01 7.72755563e-01
      7.56977797e-01 7.47866690e-01 7.37022221e-01 7.36933351e-01
      7.34755576e-01 7.33333349e-01 7.32800007e-01 7.32622206e-01
      7.28711128e-01 7.28133321e-01 7.32533336e-01 7.37555563e-01
      7.42977798e-01 7.48177767e-01 7.48888910e-01 7.48222232e-01
      7.47377753e-01 7.49422193e-01 7.49111116e-01 7.49777794e-01
      7.48977780e-01 7.40844429e-01 7.31377780e-01 7.27199972e-01
      7.27244437e-01 7.29111135e-01 7.37155557e-01 7.47022212e-01
      7.58977771e-01 7.71422207e-01 7.87733316e-01 8.06355536e-01
      8.26177776e-01 8.46622229e-01 8.66488874e-01 8.76266658e-01
      8.86577785e-01 8.87555540e-01 8.89377773e-01 8.89777780e-01
      8.88977766e-01 8.88355553e-01 8.88133347e-01 8.88222218e-01
      8.89066696e-01 8.91022205e-01 8.89466643e-01 8.88000011e-01
      8.73822212e-01 8.46355557e-01 8.18488896e-01 7.84044445e-01
      7.50311136e-01 7.34622240e-01 7.19111085e-01 7.08844423e-01
      7.01244473e-01 7.05155551e-01 7.21111119e-01 7.38533318e-01
      7.57688880e-01 7.77911127e-01 7.85511136e-01 7.92622209e-01
      7.98622251e-01 8.05288911e-01 8.08711112e-01 8.09644461e-01
      8.10622215e-01 8.09155583e-01 8.06666672e-01 8.00711095e-01
      7.93022215e-01 7.87733316e-01 7.85955548e-01 7.80711114e-01
      7.70533323e-01 7.62133360e-01 7.30666637e-01 7.01244473e-01
      6.84177756e-01 6.72488868e-01 6.70311093e-01 6.81111097e-01
      6.92533314e-01 7.07377791e-01 7.24444449e-01 7.53955543e-01
      7.87199974e-01 8.09511125e-01 8.25288892e-01 8.35022211e-01
      8.30622196e-01 8.28177750e-01 8.27333331e-01 8.26088905e-01
      8.22577775e-01 8.16666663e-01 8.10711086e-01 8.03644419e-01
      7.96755552e-01 7.91688859e-01 7.86800027e-01 7.81511128e-01
      7.77022243e-01 7.62222230e-01 7.41733313e-01 7.28755534e-01
      7.18222201e-01 7.12488890e-01 7.19066679e-01 7.26222217e-01
      7.34088898e-01 7.42266655e-01 7.45911121e-01</_>
    <_>
      5.24185300e-01 5.25120199e-01 5.64980567e-01 1.04257774e+00
      1.04115558e+00 1.03062224e+00 1.02297783e+00 1.00728893e+00
      9.94444430e-01 9.88177776e-01 9.86133337e-01 9.86844420e-01
      9.94222224e-01 1.00093329e+00 9.98755574e-01 9.95466650e-01
      9.94444430e-01 9.90177751e-01 9.88399982e-01 9.85111117e-01
      9.82222199e-01 9.80000019e-01 9.77244437e-01 9.74088907e-01
      9.70488906e-01 9.67688918e-01 9.67733324e-01 9.67911124e-01
      9.67199981e-01 9.67199981e-01 9.65600014e-01 9.63333309e-01
      9.61466670e-01 9.61600006e-01 9.62400019e-01 9.64266658e-01
      9.67244446e-01 9.66844440e-01 9.66044426e-01 9.64044452e-01
      9.64266658e-01 9.64533329e-01 9.59733307e-01 9.53199983e-01
      9.35733318e-01 9.05777752e-01 8.74488890e-01 8.44311118e-01
      8.12933326e-01 7.90844440e-01 7.71066666e-01 7.62044430e-01
      7.66577780e-01 7.72711098e-01 7.91199982e-01 8.11866641e-01
      8.25244427e-01 8.39022219e-01 8.49066675e-01 8.55644464e-01
      8.62399995e-01 8.60800028e-01 8.60888898e-01 8.59777749e-01
      8.59244466e-01 8.60355556e-01 8.59022200e-01 8.59600008e-01
      8.58444452e-01 8.56266677e-01 8.56311083e-01 8.56844425e-01
      8.57733309e-01 8.59288871e-01 8.60622227e-01 8.61777782e-01
      8.63244474e-01 8.64177763e-01 8.63244474e-01 8.63688886e-01
      8.64266694e-01 8.63688886e-01 8.61955583e-01 8.59111130e-01
      8.57866645e-01 8.56844425e-01 8.57555568e-01 8.59111130e-01
      8.60888898e-01 8.61866653e-01 8.62533331e-01 8.46311092e-01
      8.18266690e-01 7.92044461e-01 7.68444419e-01 7.43688881e-01
      7.39688873e-01 7.36222208e-01 7.36666679e-01 7.39511132e-01
      7.52755582e-01 8.01155567e-01 8.49377751e-01 8.95244420e-01
      9.40088868e-01 9.57422197e-01 9.53644454e-01 9.49911118e-01
      9.47466671e-01 9.45244431e-01 9.44311082e-01 9.43066657e-01
      9.40177798e-01 9.37955558e-01 9.36399996e-01 9.34933305e-01
      9.34266686e-01 9.33155537e-01 9.33377802e-01 9.32355583e-01
      9.31244433e-01 9.31688905e-01 9.31022227e-01 9.32488918e-01
      9.34177756e-01 9.36044455e-01 9.38311100e-01 9.40577805e-01
      9.42844450e-01 9.45999980e-01 9.49599981e-01 9.53866661e-01
      9.56311107e-01 9.60133314e-01 9.60711122e-01 9.63155568e-01
      9.63422239e-01 9.63777781e-01 9.65955555e-01 9.69200015e-01
      9.66755569e-01 9.61066663e-01 9.52977777e-01 9.47466671e-01
      9.39999998e-01 9.42222238e-01 9.51688886e-01 9.59422231e-01
      9.67244446e-01 9.74488914e-01 9.85199988e-01 9.97688890e-01
      9.99733329e-01 9.66266692e-01 9.65822220e-01 9.66488898e-01
      9.65466678e-01 9.63644445e-01 9.60044444e-01 9.57644463e-01
      9.54977751e-01 9.51822221e-01 9.47377801e-01 9.42133307e-01
      9.39777792e-01 9.37555552e-01 9.35377777e-01 9.31599975e-01
      9.29244459e-01 9.27555561e-01 9.25555527e-01 9.22755539e-01
      9.22533333e-01 9.08577800e-01 8.88711095e-01 8.64622235e-01
      8.32000017e-01 8.00666690e-01 7.85244465e-01 7.72000015e-01
      7.64800012e-01 7.61288881e-01 7.60088861e-01 7.61200011e-01
      7.62266695e-01 7.63999999e-01 7.66711116e-01 7.70044446e-01
      7.73022234e-01 7.77599990e-01 7.79777765e-01 7.83288896e-01
      7.85333335e-01 7.86133349e-01 7.85155535e-01 7.85022199e-01
      7.83955574e-01 7.82400012e-01 7.80266643e-01 7.74933338e-01
      7.68755555e-01 7.68355548e-01 7.74266660e-01 7.80577779e-01
      7.85733342e-01 7.91022241e-01 8.05511117e-01 8.24311137e-01
      8.45555544e-01 8.71333361e-01 8.96799982e-01 9.01511133e-01
      9.08577800e-01 9.09155548e-01 9.09333348e-01 9.08044457e-01
      9.07999992e-01 9.06888902e-01 9.08044457e-01 9.09377754e-01
      9.11111116e-01 9.14977789e-01 9.09777761e-01 8.90622199e-01
      8.71422231e-01 8.33288908e-01 7.94888914e-01 7.72622228e-01
      7.58800030e-01 7.47111082e-01 7.40355551e-01 7.34222233e-01
      7.54133344e-01 7.74266660e-01 7.91377783e-01 8.07644427e-01
      8.19777787e-01 8.27333331e-01 8.35244417e-01 8.38488877e-01
      8.41688871e-01 8.42755556e-01 8.42577755e-01 8.42088878e-01
      8.37422252e-01 8.34533334e-01 8.31333339e-01 8.29555571e-01
      8.22266638e-01 8.13600004e-01 8.03600013e-01 7.81733334e-01
      7.62577772e-01 7.66444445e-01 7.72888899e-01 7.83688903e-01
      8.00266683e-01 8.19999993e-01 8.51599991e-01 8.84622216e-01
      9.09377754e-01 9.34533358e-01 9.46399987e-01 9.49733317e-01
      9.53111112e-01 9.56444442e-01 9.60533321e-01 9.63244438e-01
      9.66622233e-01 9.71822202e-01 9.73555565e-01 9.75688875e-01
      9.80088890e-01 9.81599987e-01 9.85422194e-01 9.89555538e-01
      9.91866648e-01 9.91022229e-01 9.88622248e-01 9.85199988e-01
      9.79511082e-01 9.86177802e-01 9.93644416e-01 1.00666666e+00
      1.02719998e+00 1.04680002e+00 1.07044446e+00 1.09413338e+00
      1.12302220e+00 1.15435553e+00 1.18844450e+00 1.22773337e+00
      1.26657772e+00 1.29488885e+00 1.32293332e+00 1.33728886e+00
      1.34404445e+00 1.34893334e+00 1.34813333e+00 1.34737778e+00
      1.34706664e+00 1.34742224e+00 1.34782219e+00</_>
    <_>
      6.45468950e-01 6.52049124e-01 7.41161287e-01 1.07599998e+00
      1.07715559e+00 1.07297778e+00 1.06822217e+00 1.06551111e+00
      1.06035554e+00 1.05751109e+00 1.05266666e+00 1.04946661e+00
      1.04715550e+00 1.04533339e+00 1.04297781e+00 1.05991113e+00
      1.07475555e+00 1.09177780e+00 1.10982227e+00 1.12955558e+00
      1.14911115e+00 1.15848887e+00 1.16173339e+00 1.16582227e+00
      1.16711116e+00 1.16666663e+00 1.16497779e+00 1.16462219e+00
      1.16826665e+00 1.17004442e+00 1.17159998e+00 1.16826665e+00
      1.16253328e+00 1.15715551e+00 1.15542221e+00 1.15799999e+00
      1.16084445e+00 1.16524446e+00 1.17155552e+00 1.17977774e+00
      1.18844450e+00 1.19902217e+00 1.20928884e+00 1.22088885e+00
      1.23026669e+00 1.23937774e+00 1.24831116e+00 1.23906672e+00
      1.21204448e+00 1.18248892e+00 1.15471113e+00 1.12346661e+00
      1.09444439e+00 1.06111109e+00 1.06066668e+00 1.05813336e+00
      1.05644441e+00 1.06786668e+00 1.08302224e+00 1.09915555e+00
      1.11062217e+00 1.11746669e+00 1.12320006e+00 1.13155556e+00
      1.14417779e+00 1.15737772e+00 1.17093337e+00 1.17062223e+00
      1.17026663e+00 1.16884446e+00 1.16697776e+00 1.16311109e+00
      1.15955555e+00 1.15711117e+00 1.15626669e+00 1.15568888e+00
      1.15355551e+00 1.15271115e+00 1.15266669e+00 1.15151107e+00
      1.14968884e+00 1.14800000e+00 1.14648890e+00 1.14680004e+00
      1.14813328e+00 1.15013337e+00 1.15022218e+00 1.14862227e+00
      1.14546669e+00 1.14448893e+00 1.14746666e+00 1.15088892e+00
      1.15262222e+00 1.14977777e+00 1.14279997e+00 1.13795555e+00
      1.11506665e+00 1.07773328e+00 1.04115558e+00 1.01848888e+00
      1.02693331e+00 1.03862226e+00 1.04817772e+00 1.07928884e+00
      1.10937774e+00 1.13977778e+00 1.17857778e+00 1.21888888e+00
      1.26053333e+00 1.28524446e+00 1.29622221e+00 1.30742228e+00
      1.31408894e+00 1.31075561e+00 1.30644441e+00 1.30311108e+00
      1.29960001e+00 1.29666662e+00 1.29471111e+00 1.29168892e+00
      1.28848886e+00 1.28577781e+00 1.28160000e+00 1.27528894e+00
      1.26768887e+00 1.26222217e+00 1.25826669e+00 1.25417781e+00
      1.24960005e+00 1.24293339e+00 1.23564446e+00 1.22755551e+00
      1.21893334e+00 1.20857775e+00 1.19937778e+00 1.18893337e+00
      1.17768884e+00 1.16595554e+00 1.15528893e+00 1.14377773e+00
      1.13155556e+00 1.12008893e+00 1.11026669e+00 1.09915555e+00
      1.08884442e+00 1.07315552e+00 1.05435550e+00 1.03680003e+00
      1.02302217e+00 1.01719999e+00 1.01142228e+00 1.00626671e+00
      1.00653338e+00 1.40644443e+00 1.40551114e+00 1.37128890e+00
      1.33213329e+00 1.29213333e+00 1.26373339e+00 1.24728894e+00
      1.22662222e+00 1.21115553e+00 1.20048892e+00 1.19031107e+00
      1.18057775e+00 1.18271112e+00 1.18359995e+00 1.18528891e+00
      1.19693339e+00 1.21084440e+00 1.22360003e+00 1.23657775e+00
      1.24537778e+00 1.25506663e+00 1.26248884e+00 1.26493335e+00
      1.26826668e+00 1.27035558e+00 1.27057779e+00 1.26897776e+00
      1.26733339e+00 1.26271117e+00 1.25826669e+00 1.25386667e+00
      1.25053334e+00 1.24728894e+00 1.24537778e+00 1.23835552e+00
      1.22133338e+00 1.20360005e+00 1.18675554e+00 1.15146661e+00
      1.11693335e+00 1.08257782e+00 1.07577777e+00 1.07848895e+00
      1.08200002e+00 1.08337772e+00 1.08560002e+00 1.08551109e+00
      1.08768892e+00 1.09057772e+00 1.09480000e+00 1.09608889e+00
      1.09608889e+00 1.09440005e+00 1.09342217e+00 1.09044445e+00
      1.08768892e+00 1.08519995e+00 1.07893336e+00 1.06897783e+00
      1.05888891e+00 1.05168891e+00 1.06195557e+00 1.07177782e+00
      1.08168888e+00 1.10097778e+00 1.12035561e+00 1.14186668e+00
      1.16386664e+00 1.18986666e+00 1.21462226e+00 1.23782218e+00
      1.25293338e+00 1.26862228e+00 1.28226662e+00 1.28782225e+00
      1.29240000e+00 1.29657781e+00 1.29955554e+00 1.30280006e+00
      1.30502224e+00 1.30320001e+00 1.30146670e+00 1.29937780e+00
      1.28226662e+00 1.24262226e+00 1.19977772e+00 1.16031110e+00
      1.13404441e+00 1.10768890e+00 1.08071113e+00 1.08306670e+00
      1.09133339e+00 1.09862220e+00 1.11773336e+00 1.14773333e+00
      1.17604446e+00 1.19706666e+00 1.20395553e+00 1.21155560e+00
      1.21884441e+00 1.21560001e+00 1.21640003e+00 1.21328890e+00
      1.20888889e+00 1.20324445e+00 1.19715559e+00 1.18715560e+00
      1.17240000e+00 1.15755558e+00 1.13897777e+00 1.10484445e+00
      1.07186663e+00 1.03822219e+00 1.02955556e+00 1.02097774e+00
      1.01137781e+00 1.02742219e+00 1.04964447e+00 1.07231116e+00
      1.09924448e+00 1.12848890e+00 1.15755558e+00 1.17991114e+00
      1.17764449e+00 1.17533338e+00 1.17271113e+00 1.16146672e+00
      1.14839995e+00 1.13626671e+00 1.12711108e+00 1.11857772e+00
      1.11119998e+00 1.10026670e+00 1.08911109e+00 1.07568884e+00
      1.06355560e+00 1.05204439e+00 1.04084444e+00 1.02919996e+00
      9.98088896e-01 9.67022240e-01 9.34266686e-01 9.16622221e-01
      9.06044424e-01 8.95822227e-01 8.90533328e-01 8.93333316e-01
      8.97911131e-01 8.99466693e-01 8.99244428e-01</_>
    <_>
      5.35705447e-01 5.47865987e-01 6.21362984e-01 8.75199974e-01
      8.73777807e-01 8.70177805e-01 8.74000013e-01 8.96444440e-01
      9.11288917e-01 8.98311138e-01 8.85066688e-01 8.80088866e-01
      8.77733350e-01 8.76444459e-01 8.77022207e-01 8.75244439e-01
      8.72622252e-01 8.81111085e-01 8.98311138e-01 9.18755531e-01
      9.41466689e-01 9.60266650e-01 9.61600006e-01 9.63688910e-01
      9.61022198e-01 9.57022250e-01 9.61733341e-01 9.65911090e-01
      9.71955538e-01 9.78133321e-01 9.79333341e-01 9.78755534e-01
      9.73466694e-01 9.67511117e-01 9.61955547e-01 9.59511101e-01
      9.62311089e-01 9.77911115e-01 9.93333340e-01 1.00764441e+00
      1.02226663e+00 1.04200006e+00 1.06155550e+00 1.06942225e+00
      1.07453334e+00 1.05760002e+00 1.02937782e+00 1.00364447e+00
      9.78488863e-01 9.59200025e-01 9.51111138e-01 9.49022233e-01
      9.62666690e-01 9.77911115e-01 9.91466641e-01 1.00937784e+00
      1.01857781e+00 1.02866662e+00 1.04279995e+00 1.05719995e+00
      1.06480002e+00 1.07133329e+00 1.07351112e+00 1.07248890e+00
      1.07022226e+00 1.06733334e+00 1.06488883e+00 1.06151116e+00
      1.05911112e+00 1.05760002e+00 1.05804443e+00 1.05662227e+00
      1.05511117e+00 1.05657780e+00 1.05582225e+00 1.05613339e+00
      1.05604446e+00 1.05617774e+00 1.05542219e+00 1.05551112e+00
      1.05777776e+00 1.05875552e+00 1.05724442e+00 1.05573332e+00
      1.05195558e+00 1.04728889e+00 1.01244450e+00 9.77066696e-01
      9.58800018e-01 9.43955541e-01 9.49866652e-01 9.67288911e-01
      9.87955570e-01 1.01262224e+00 1.04311109e+00 1.08008885e+00
      1.11302221e+00 1.13546669e+00 1.15488887e+00 1.15168893e+00
      1.14951110e+00 1.14577782e+00 1.14262223e+00 1.13857782e+00
      1.13408887e+00 1.12800002e+00 1.12022221e+00 1.11515558e+00
      1.11075556e+00 1.10404444e+00 1.09755552e+00 1.08991110e+00
      1.08244443e+00 1.07444441e+00 1.06493330e+00 1.05733335e+00
      1.04835558e+00 1.03755558e+00 1.02808893e+00 1.01791108e+00
      1.00706661e+00 9.97955561e-01 9.85244453e-01 9.73066688e-01
      9.57688868e-01 9.37955558e-01 9.18133318e-01 8.90888870e-01
      8.66933346e-01 8.42755556e-01 8.21422219e-01 8.13822210e-01
      8.06800008e-01 8.00088882e-01 7.94399977e-01 7.87288904e-01
      7.83288896e-01 7.70755529e-01 7.57200003e-01 7.22977757e-01
      6.61377788e-01 6.22977793e-01 6.37733340e-01 6.55111134e-01
      6.83733344e-01 7.11555541e-01 7.20799983e-01 7.28844464e-01
      7.32133329e-01 7.34622240e-01 7.34933317e-01 7.35022247e-01
      7.35555530e-01 8.67955565e-01 8.80266666e-01 9.13066685e-01
      9.37466681e-01 9.44266677e-01 9.49733317e-01 9.44177806e-01
      9.37822223e-01 9.37022209e-01 9.37466681e-01 9.37288880e-01
      9.41644430e-01 9.54044461e-01 9.72088873e-01 9.92622197e-01
      1.01800001e+00 1.03551114e+00 1.04680002e+00 1.05604446e+00
      1.06266665e+00 1.06653333e+00 1.07688892e+00 1.08399999e+00
      1.08800006e+00 1.08977783e+00 1.09662223e+00 1.10137773e+00
      1.10324442e+00 1.10297775e+00 1.09391105e+00 1.07991111e+00
      1.06453335e+00 1.04711115e+00 1.03057778e+00 1.01124442e+00
      9.94488895e-01 9.95688915e-01 9.98177767e-01 1.00115561e+00
      1.00222218e+00 1.00435555e+00 1.00551116e+00 1.01057780e+00
      1.01577783e+00 1.01915550e+00 1.02079999e+00 1.01951110e+00
      1.01626670e+00 1.01404440e+00 1.01080000e+00 1.00782228e+00
      1.00231111e+00 9.97422218e-01 1.00511110e+00 1.01533329e+00
      1.03124440e+00 1.04937780e+00 1.07128894e+00 1.09671116e+00
      1.11684442e+00 1.13657773e+00 1.15400004e+00 1.16880000e+00
      1.18102217e+00 1.18648887e+00 1.19133329e+00 1.19395554e+00
      1.19488883e+00 1.19857776e+00 1.20173335e+00 1.19831109e+00
      1.19088888e+00 1.16102219e+00 1.12093329e+00 1.08924448e+00
      1.06293333e+00 1.04324448e+00 1.03022218e+00 1.02764440e+00
      1.04844439e+00 1.07111108e+00 1.08857775e+00 1.10835552e+00
      1.10164440e+00 1.09288883e+00 1.08715558e+00 1.07844448e+00
      1.07346666e+00 1.07031107e+00 1.06280005e+00 1.05444443e+00
      1.04404449e+00 1.03102219e+00 1.01222217e+00 9.79555547e-01
      9.45777774e-01 9.17555571e-01 8.88711095e-01 8.99600029e-01
      9.09777761e-01 9.27466691e-01 9.48088884e-01 9.78488863e-01
      1.01711106e+00 1.03333330e+00 1.03413332e+00 1.03111112e+00
      1.02391112e+00 1.01400006e+00 1.00471115e+00 9.94711101e-01
      9.83777761e-01 9.74044442e-01 9.62800026e-01 9.54355538e-01
      9.37377751e-01 9.24177766e-01 9.04666662e-01 8.84222209e-01
      8.55377793e-01 8.21555555e-01 7.95955539e-01 7.87244439e-01
      7.80399978e-01 7.83599973e-01 7.84533322e-01 7.89555550e-01
      7.91599989e-01 8.03288877e-01 8.13955545e-01 8.01866651e-01
      7.85466671e-01 7.35733330e-01 6.69288874e-01 6.30400002e-01
      6.10044420e-01 6.13777757e-01 6.52133346e-01 6.75155580e-01
      6.62311137e-01 6.48222208e-01 6.34355545e-01 6.19288862e-01
      6.40133321e-01 6.59555554e-01 6.67688906e-01 6.73733354e-01
      6.75733328e-01 6.76800013e-01 6.78088903e-01</_>
    <_>
      4.21264142e-01 4.22740221e-01 4.82731342e-01 7.27199972e-01
      7.18400002e-01 7.01688886e-01 6.89199984e-01 6.82311118e-01
      6.70444429e-01 6.54533327e-01 6.43111110e-01 6.33466661e-01
      6.34800017e-01 6.41466677e-01 6.56799972e-01 6.76666677e-01
      6.88044429e-01 6.96222246e-01 7.10133314e-01 7.26088881e-01
      7.39822209e-01 7.50711083e-01 7.49955535e-01 7.47688890e-01
      7.52088904e-01 7.60488868e-01 7.70933330e-01 7.81333327e-01
      7.85733342e-01 7.89155543e-01 7.93733358e-01 7.97955573e-01
      8.04177761e-01 8.09822202e-01 8.15199971e-01 8.19022238e-01
      8.20355535e-01 8.20844471e-01 8.24577749e-01 8.28888893e-01
      8.31555545e-01 8.35244417e-01 8.38444471e-01 8.41955543e-01
      8.43777776e-01 8.46933305e-01 8.49155545e-01 8.50711107e-01
      8.48311126e-01 8.43066692e-01 8.22533309e-01 7.97599971e-01
      7.55111098e-01 7.14222193e-01 6.90755546e-01 6.68266654e-01
      6.59288883e-01 6.51822209e-01 6.51600003e-01 6.53199971e-01
      6.59866691e-01 6.67466640e-01 6.81822240e-01 6.94711089e-01
      7.05511093e-01 7.15244472e-01 7.24444449e-01 7.34000027e-01
      7.45822251e-01 7.55911112e-01 7.61644423e-01 7.66088903e-01
      7.67600000e-01 7.66666651e-01 7.65555561e-01 7.66266644e-01
      7.66088903e-01 7.65200019e-01 7.62444437e-01 7.60933340e-01
      7.61200011e-01 7.62088895e-01 7.65644431e-01 7.65955567e-01
      7.63955534e-01 7.62044430e-01 7.60088861e-01 7.58311093e-01
      7.57422209e-01 7.55066693e-01 7.51866639e-01 7.52311110e-01
      7.52577782e-01 7.53288865e-01 7.53199995e-01 7.52799988e-01
      7.51466691e-01 7.48888910e-01 7.45955527e-01 7.40044415e-01
      7.31155574e-01 7.04088867e-01 6.68088913e-01 6.44311130e-01
      6.22666657e-01 6.29066646e-01 6.40533328e-01 6.59600019e-01
      6.79955542e-01 7.00044453e-01 7.20311105e-01 7.43777752e-01
      7.68044472e-01 8.03511083e-01 8.40799987e-01 8.47022235e-01
      8.51999998e-01 8.47111106e-01 8.40533316e-01 8.37333322e-01
      8.34355533e-01 8.31377804e-01 8.28977764e-01 8.26977789e-01
      8.25244427e-01 8.21822226e-01 8.17911088e-01 8.11733305e-01
      8.06844473e-01 8.03377807e-01 7.98488915e-01 7.93644428e-01
      7.86044419e-01 7.80488908e-01 7.74311125e-01 7.70355582e-01
      7.69599974e-01 7.70844460e-01 7.70933330e-01 7.58666694e-01
      7.51466691e-01 7.42977798e-01 7.39777803e-01 7.33244419e-01
      7.26622224e-01 7.17511117e-01 7.00399995e-01 6.72844470e-01
      6.46888912e-01 6.21555567e-01 6.15111113e-01 6.25333309e-01
      6.32177770e-01 5.63511133e-01 5.56577802e-01 5.48577785e-01
      5.42488873e-01 5.44977784e-01 5.46177804e-01 5.52577794e-01
      5.57377756e-01 5.61866641e-01 5.66355526e-01 5.72844446e-01
      5.89822233e-01 6.16133332e-01 6.40488863e-01 6.64711118e-01
      6.77200019e-01 6.88399971e-01 7.00444460e-01 7.10577786e-01
      7.22844422e-01 7.34755576e-01 7.42222250e-01 7.50933349e-01
      7.56711125e-01 7.60844469e-01 7.65466690e-01 7.69822240e-01
      7.82488883e-01 7.94666648e-01 8.05466652e-01 8.17066669e-01
      8.22844446e-01 8.28533351e-01 8.24355543e-01 8.22088897e-01
      7.94711113e-01 7.66577780e-01 7.49777794e-01 7.33111084e-01
      7.32355535e-01 7.32311130e-01 7.26933360e-01 7.23377764e-01
      7.19955564e-01 7.17377782e-01 7.18222201e-01 7.20799983e-01
      7.22800016e-01 7.26222217e-01 7.29244471e-01 7.32133329e-01
      7.29777753e-01 7.29244471e-01 7.28266656e-01 7.26933360e-01
      7.26488888e-01 7.24488914e-01 7.23333359e-01 7.20711112e-01
      7.13022232e-01 7.08400011e-01 7.09822237e-01 7.15777755e-01
      7.26666689e-01 7.38488913e-01 7.49155581e-01 7.65288889e-01
      7.85466671e-01 8.06311131e-01 8.27733338e-01 8.47422242e-01
      8.64444435e-01 8.75999987e-01 8.80044460e-01 8.82088900e-01
      8.82088900e-01 8.81733358e-01 8.80755544e-01 8.79999995e-01
      8.80311131e-01 8.81555557e-01 8.81466687e-01 8.80888879e-01
      8.77511084e-01 8.63911092e-01 8.41422200e-01 8.08666646e-01
      7.72488892e-01 7.47466683e-01 7.27955580e-01 7.11600006e-01
      6.94444418e-01 6.91733360e-01 6.94888890e-01 7.12666690e-01
      7.37377763e-01 7.55155563e-01 7.71733344e-01 7.82222211e-01
      7.90311098e-01 7.96666682e-01 8.03022206e-01 8.03244472e-01
      8.03822219e-01 8.02399993e-01 7.98888862e-01 7.95244455e-01
      7.91777790e-01 7.84488916e-01 7.77777791e-01 7.71866679e-01
      7.64444470e-01 7.49288917e-01 7.30400026e-01 7.02533305e-01
      6.75955534e-01 6.71866655e-01 6.68666661e-01 6.81999981e-01
      6.95511103e-01 7.18088865e-01 7.41333306e-01 7.77599990e-01
      8.11466694e-01 8.30266654e-01 8.44355583e-01 8.44044447e-01
      8.41111124e-01 8.32977772e-01 8.24977756e-01 8.19911122e-01
      8.13555539e-01 8.06711137e-01 8.01111102e-01 7.94266641e-01
      7.89600015e-01 7.83155560e-01 7.75422215e-01 7.63511121e-01
      7.48933315e-01 7.30488896e-01 7.13955581e-01 7.01822221e-01
      6.97822213e-01 7.06933320e-01 7.15377748e-01 7.23822236e-01
      7.34577775e-01 7.47733355e-01 7.53288865e-01</_>
    <_>
      6.40587389e-01 6.36187553e-01 6.98816538e-01 1.43186665e+00
      1.43262219e+00 1.42995560e+00 1.42799997e+00 1.42617774e+00
      1.42279994e+00 1.42031109e+00 1.41680002e+00 1.39813328e+00
      1.38044441e+00 1.36346662e+00 1.33502221e+00 1.30857778e+00
      1.28204441e+00 1.26546669e+00 1.25053334e+00 1.23666668e+00
      1.23471117e+00 1.23226666e+00 1.23257780e+00 1.23915553e+00
      1.24675560e+00 1.25635552e+00 1.24257779e+00 1.23151112e+00
      1.22066665e+00 1.21191108e+00 1.20644450e+00 1.19942224e+00
      1.19408894e+00 1.18875551e+00 1.18519998e+00 1.18146670e+00
      1.17844439e+00 1.17573333e+00 1.17533338e+00 1.17591107e+00
      1.17724442e+00 1.18280005e+00 1.18897772e+00 1.19519997e+00
      1.20093334e+00 1.20573330e+00 1.21284449e+00 1.17840004e+00
      1.14453328e+00 1.11257780e+00 1.09399998e+00 1.07688892e+00
      1.06008887e+00 1.07582223e+00 1.09000003e+00 1.10733330e+00
      1.11946666e+00 1.13164449e+00 1.14568889e+00 1.15564442e+00
      1.16764450e+00 1.17853332e+00 1.17546666e+00 1.17168891e+00
      1.16880000e+00 1.16368890e+00 1.15942228e+00 1.15586662e+00
      1.15115559e+00 1.14706671e+00 1.14426672e+00 1.13764441e+00
      1.13333333e+00 1.12960005e+00 1.12888885e+00 1.12880003e+00
      1.13039994e+00 1.13453329e+00 1.13991106e+00 1.14493334e+00
      1.14760005e+00 1.14902222e+00 1.15208888e+00 1.13542223e+00
      1.12075555e+00 1.10337782e+00 1.07453334e+00 1.04240000e+00
      1.01453328e+00 1.03622222e+00 1.05879998e+00 1.08191109e+00
      1.12564445e+00 1.16666663e+00 1.21200001e+00 1.22466671e+00
      1.23928893e+00 1.25497782e+00 1.24062216e+00 1.22937775e+00
      1.21724439e+00 1.21297777e+00 1.21026671e+00 1.20871115e+00
      1.20106661e+00 1.19511116e+00 1.18866670e+00 1.18026662e+00
      1.17271113e+00 1.16515553e+00 1.15373337e+00 1.14142227e+00
      1.13102221e+00 1.11626661e+00 1.10342216e+00 1.08955550e+00
      1.07466662e+00 1.05933332e+00 1.04737782e+00 1.03248894e+00
      1.02448893e+00 1.01119995e+00 9.92488861e-01 9.73955572e-01
      9.55333352e-01 9.40355539e-01 9.23866689e-01 9.09911096e-01
      8.96133304e-01 8.84488881e-01 8.73155534e-01 8.65111113e-01
      8.56622219e-01 8.49822223e-01 8.43377769e-01 8.36577773e-01
      8.30666661e-01 8.20844471e-01 8.13555539e-01 8.06133330e-01
      8.19555581e-01 8.34222198e-01 8.48622203e-01 8.38355541e-01
      8.28088880e-01 8.18799973e-01 7.96844423e-01 7.74488866e-01
      7.54666686e-01 7.43422210e-01 7.32577801e-01 7.21422195e-01
      7.22444415e-01 1.36600006e+00 1.36502218e+00 1.34862220e+00
      1.32893336e+00 1.31315553e+00 1.31013334e+00 1.31093335e+00
      1.30986667e+00 1.31097782e+00 1.31208885e+00 1.31382227e+00
      1.31404448e+00 1.31524444e+00 1.31662226e+00 1.28760004e+00
      1.26004446e+00 1.23284447e+00 1.20804441e+00 1.18808889e+00
      1.16497779e+00 1.15351117e+00 1.14306664e+00 1.13084447e+00
      1.12591112e+00 1.12115550e+00 1.11608887e+00 1.13013339e+00
      1.14555550e+00 1.15946662e+00 1.17253339e+00 1.18782222e+00
      1.20106661e+00 1.20413339e+00 1.20764446e+00 1.20911109e+00
      1.21724439e+00 1.22253335e+00 1.22915554e+00 1.22444439e+00
      1.22124445e+00 1.21768892e+00 1.19288886e+00 1.16853333e+00
      1.14408886e+00 1.10991108e+00 1.07582223e+00 1.04244447e+00
      1.04466665e+00 1.04760003e+00 1.05057776e+00 1.04786670e+00
      1.04471111e+00 1.04195559e+00 1.04684448e+00 1.05115557e+00
      1.05613339e+00 1.05577779e+00 1.05666661e+00 1.05635560e+00
      1.05097783e+00 1.04751110e+00 1.04262221e+00 1.05466664e+00
      1.06524444e+00 1.07648885e+00 1.09924448e+00 1.12373328e+00
      1.14760005e+00 1.16826665e+00 1.18879998e+00 1.20866668e+00
      1.21560001e+00 1.22337782e+00 1.23191106e+00 1.23537779e+00
      1.24071109e+00 1.24355555e+00 1.24564445e+00 1.24662220e+00
      1.24746668e+00 1.21475554e+00 1.18226671e+00 1.14928889e+00
      1.12831116e+00 1.10795557e+00 1.08866668e+00 1.10839999e+00
      1.12857783e+00 1.14986670e+00 1.16968894e+00 1.18884444e+00
      1.20822227e+00 1.20982218e+00 1.21151114e+00 1.21351111e+00
      1.21333337e+00 1.21337783e+00 1.21360004e+00 1.20546663e+00
      1.19871116e+00 1.18951106e+00 1.15480006e+00 1.11795557e+00
      1.08186662e+00 1.08573329e+00 1.09071112e+00 1.09533334e+00
      1.13893330e+00 1.18155551e+00 1.22515559e+00 1.24137783e+00
      1.26062226e+00 1.27768886e+00 1.26191115e+00 1.24417782e+00
      1.22711110e+00 1.21733332e+00 1.20760000e+00 1.19915557e+00
      1.18897772e+00 1.17999995e+00 1.17217779e+00 1.14937782e+00
      1.12728894e+00 1.10631108e+00 1.08537781e+00 1.06524444e+00
      1.04342222e+00 1.05248892e+00 1.06120002e+00 1.06995559e+00
      1.03831112e+00 1.00906670e+00 9.77911115e-01 9.27511096e-01
      8.78177762e-01 8.28266680e-01 7.48933315e-01 6.67999983e-01
      5.89733362e-01 5.70488870e-01 5.54888904e-01 5.37022233e-01
      5.59733331e-01 5.82755566e-01 6.04444444e-01 6.04266644e-01
      6.00488901e-01 5.99422216e-01 5.99155545e-01</_>
    <_>
      4.39783007e-01 4.38573241e-01 4.88464832e-01 7.71955550e-01
      7.72044420e-01 7.64266670e-01 7.54977763e-01 7.49866664e-01
      7.40844429e-01 7.38355577e-01 7.32222199e-01 7.36222208e-01
      7.40444422e-01 7.46266663e-01 7.47288883e-01 7.50488877e-01
      7.53466666e-01 7.68044472e-01 7.83466637e-01 7.98577785e-01
      8.07822227e-01 8.13777804e-01 8.24800014e-01 8.18622231e-01
      8.14666688e-01 8.12533319e-01 8.11911106e-01 8.13066661e-01
      8.13155532e-01 8.13955545e-01 8.13600004e-01 8.14711094e-01
      8.17377806e-01 8.19999993e-01 8.23688865e-01 8.24666679e-01
      8.27511132e-01 8.29022229e-01 8.30177784e-01 8.32177758e-01
      8.34222198e-01 8.37155581e-01 8.40444446e-01 8.45066667e-01
      8.48444462e-01 8.53288889e-01 8.58311117e-01 8.50088894e-01
      8.43111098e-01 8.36311102e-01 8.02577794e-01 7.68622220e-01
      7.37111092e-01 7.10799992e-01 6.87688887e-01 6.62755549e-01
      6.62977755e-01 6.62800014e-01 6.64755583e-01 6.77422225e-01
      6.91333354e-01 7.04488873e-01 7.13422239e-01 7.22933352e-01
      7.32266665e-01 7.41999984e-01 7.50800014e-01 7.61777759e-01
      7.64711082e-01 7.70133317e-01 7.74088860e-01 7.72400022e-01
      7.70488918e-01 7.69733310e-01 7.67822206e-01 7.66799986e-01
      7.66399980e-01 7.67244458e-01 7.68044472e-01 7.69999981e-01
      7.70355582e-01 7.68888891e-01 7.70399988e-01 7.68177807e-01
      7.67244458e-01 7.66266644e-01 7.64711082e-01 7.63822198e-01
      7.63377786e-01 7.61022210e-01 7.57288873e-01 7.56133318e-01
      7.56844461e-01 7.56933331e-01 7.58933306e-01 7.38533318e-01
      7.19822228e-01 7.01422215e-01 6.82666659e-01 6.65733337e-01
      6.48844421e-01 6.68799996e-01 6.87911093e-01 7.09955573e-01
      7.29288876e-01 7.51022220e-01 7.71911085e-01 7.94977784e-01
      8.19999993e-01 8.42888892e-01 8.44088912e-01 8.44088912e-01
      8.45511138e-01 8.40888917e-01 8.37555528e-01 8.33733320e-01
      8.29822242e-01 8.25644433e-01 8.23022246e-01 8.19022238e-01
      8.16533327e-01 8.13777804e-01 8.10088873e-01 8.06755543e-01
      8.04444432e-01 8.00533354e-01 7.98177779e-01 7.95911133e-01
      7.92044461e-01 7.88133323e-01 7.85022199e-01 7.80266643e-01
      7.76577771e-01 7.74577796e-01 7.63911128e-01 7.58133352e-01
      7.48844445e-01 7.38399982e-01 7.25911140e-01 7.15422213e-01
      7.05200016e-01 6.94666684e-01 6.86888874e-01 6.93422198e-01
      7.04622209e-01 7.12311089e-01 7.22044468e-01 7.31955528e-01
      7.42888868e-01 7.69777775e-01 7.97066689e-01 8.24622214e-01
      8.24266672e-01 7.56133318e-01 7.54844427e-01 7.45155573e-01
      7.33555555e-01 7.22800016e-01 7.12400019e-01 7.00844467e-01
      6.89866662e-01 6.86088860e-01 6.82044446e-01 6.79377794e-01
      6.95066690e-01 7.13511109e-01 7.32044458e-01 7.66577780e-01
      8.04000020e-01 8.39822233e-01 8.42755556e-01 8.44533324e-01
      8.47999990e-01 8.26488912e-01 8.04888904e-01 7.85333335e-01
      7.86844432e-01 7.89644420e-01 7.93111086e-01 7.97866642e-01
      8.04577768e-01 8.10977757e-01 8.19422245e-01 8.30933332e-01
      8.39111090e-01 8.46311092e-01 8.53511095e-01 8.60222220e-01
      8.38666677e-01 8.17422211e-01 7.94444442e-01 7.71644473e-01
      7.46933341e-01 7.23822236e-01 7.25644469e-01 7.27733314e-01
      7.28577793e-01 7.30133355e-01 7.31333315e-01 7.33155549e-01
      7.36355543e-01 7.41111100e-01 7.44799972e-01 7.47200012e-01
      7.50177801e-01 7.52311110e-01 7.50933349e-01 7.48844445e-01
      7.46222198e-01 7.39955544e-01 7.33600020e-01 7.27466643e-01
      7.28666663e-01 7.29688883e-01 7.31377780e-01 7.44355559e-01
      7.57466674e-01 7.69911110e-01 7.90444434e-01 8.09911132e-01
      8.30844462e-01 8.42355549e-01 8.55377793e-01 8.67333353e-01
      8.70311081e-01 8.72666657e-01 8.75733316e-01 8.75466645e-01
      8.75511110e-01 8.75733316e-01 8.76933336e-01 8.79377782e-01
      8.81555557e-01 8.67288888e-01 8.52666676e-01 8.38533342e-01
      8.08444440e-01 7.75955558e-01 7.45022237e-01 7.28266656e-01
      7.11022198e-01 6.94577754e-01 7.06977785e-01 7.19288886e-01
      7.31955528e-01 7.51333356e-01 7.70933330e-01 7.90711105e-01
      7.96400011e-01 8.01644444e-01 8.08711112e-01 8.08755577e-01
      8.08933318e-01 8.09955537e-01 8.06533337e-01 8.03200006e-01
      8.00044417e-01 7.90977776e-01 7.83688903e-01 7.74044454e-01
      7.56177783e-01 7.38399982e-01 7.20311105e-01 6.97422206e-01
      6.77555561e-01 6.56177759e-01 6.68311119e-01 6.78977787e-01
      6.91911101e-01 7.24799991e-01 7.55200028e-01 7.89422214e-01
      8.01955581e-01 8.16933334e-01 8.30888867e-01 8.28044474e-01
      8.25022221e-01 8.20800006e-01 8.14755559e-01 8.07288885e-01
      8.00266683e-01 7.94977784e-01 7.87866652e-01 7.85200000e-01
      7.71644473e-01 7.61200011e-01 7.49466658e-01 7.32533336e-01
      7.14133322e-01 6.97377801e-01 6.95422232e-01 6.95200026e-01
      6.94177806e-01 7.03777790e-01 7.13511109e-01 7.23911107e-01
      7.33466685e-01 7.44666696e-01 7.55688906e-01 7.43822217e-01
      7.31866658e-01 7.21688867e-01 7.21377790e-01</_>
    <_>
      5.43138981e-01 5.46013951e-01 5.91799378e-01 9.06222224e-01
      9.12177801e-01 9.19866681e-01 9.90933359e-01 1.09004450e+00
      1.16391110e+00 1.22893333e+00 1.20386672e+00 1.17066669e+00
      1.15480006e+00 1.14106667e+00 1.12342227e+00 1.10817778e+00
      1.09262228e+00 1.07884443e+00 1.06715560e+00 1.06382227e+00
      1.06973338e+00 1.07351112e+00 1.07662225e+00 1.07351112e+00
      1.06595552e+00 1.06097782e+00 1.05466664e+00 1.05155551e+00
      1.04813337e+00 1.04186666e+00 1.03653336e+00 1.03182220e+00
      1.02795553e+00 1.02435553e+00 1.02013338e+00 1.01515555e+00
      1.01071107e+00 1.00604439e+00 1.00275552e+00 1.00022221e+00
      9.98266637e-01 9.95333314e-01 9.90444422e-01 9.86400008e-01
      9.82533336e-01 9.79555547e-01 9.78622198e-01 9.73911107e-01
      9.66666639e-01 9.48222220e-01 9.21244442e-01 8.91733348e-01
      8.60000014e-01 8.33022237e-01 8.05911124e-01 7.91199982e-01
      7.77644455e-01 7.83644438e-01 7.90888906e-01 8.07066679e-01
      8.21644425e-01 8.35911095e-01 8.48666668e-01 8.60355556e-01
      8.66977751e-01 8.68933320e-01 8.69599998e-01 8.68622243e-01
      8.65199983e-01 8.62711132e-01 8.62311125e-01 8.62088919e-01
      8.61599982e-01 8.60888898e-01 8.59600008e-01 8.57644439e-01
      8.56444418e-01 8.56266677e-01 8.56133342e-01 8.58133316e-01
      8.61066639e-01 8.59377801e-01 8.56577754e-01 8.56888890e-01
      8.57777774e-01 8.57466638e-01 8.56666684e-01 8.56755555e-01
      8.56533349e-01 8.56844425e-01 8.57777774e-01 8.55777800e-01
      8.46044421e-01 8.21555555e-01 7.97066689e-01 7.69022226e-01
      7.57377803e-01 7.55111098e-01 7.55955577e-01 7.58000016e-01
      7.75466681e-01 7.94933319e-01 8.54755580e-01 9.06844437e-01
      9.39422250e-01 9.61333334e-01 9.61733341e-01 9.61022198e-01
      9.59066689e-01 9.57777798e-01 9.56577778e-01 9.56044436e-01
      9.55333352e-01 9.56044436e-01 9.57377791e-01 9.58622217e-01
      9.58044469e-01 9.59200025e-01 9.60266650e-01 9.59555566e-01
      9.61244464e-01 9.65911090e-01 9.70222235e-01 9.72044468e-01
      9.74488914e-01 9.76044416e-01 9.78044450e-01 9.81155574e-01
      9.83822227e-01 9.87022221e-01 9.91288900e-01 9.93644416e-01
      9.97688890e-01 9.98977780e-01 1.00035560e+00 1.00235558e+00
      1.00426662e+00 1.00208890e+00 9.95555580e-01 9.90800023e-01
      9.85377789e-01 9.87333357e-01 9.93155539e-01 9.98222232e-01
      1.00520003e+00 1.01351106e+00 1.02244449e+00 1.03355551e+00
      1.04613328e+00 1.07386672e+00 1.07782221e+00 1.04257774e+00
      1.01902223e+00 1.40137780e+00 1.39960003e+00 1.39768887e+00
      1.39671111e+00 1.39702225e+00 1.39715552e+00 1.39604449e+00
      1.39417779e+00 1.39213336e+00 1.39199996e+00 1.38822222e+00
      1.36626661e+00 1.33746672e+00 1.29439998e+00 1.25973332e+00
      1.23053336e+00 1.20008886e+00 1.16275561e+00 1.13457775e+00
      1.10640001e+00 1.07853329e+00 1.05333328e+00 1.03382218e+00
      1.01648891e+00 1.00080001e+00 9.87777770e-01 9.94622231e-01
      9.99555528e-01 1.00168884e+00 1.00399995e+00 9.98755574e-01
      9.96622205e-01 9.92666662e-01 9.87822235e-01 9.83866692e-01
      9.80577767e-01 9.75333333e-01 9.73422229e-01 9.72266674e-01
      9.67111111e-01 9.64088917e-01 9.64311123e-01 9.61288869e-01
      9.50044453e-01 9.32933331e-01 9.08266664e-01 8.75022233e-01
      8.34044456e-01 7.95155585e-01 7.55644441e-01 7.45555580e-01
      7.41377771e-01 7.40444422e-01 7.37733305e-01 7.36844420e-01
      7.35199988e-01 7.36577749e-01 7.37733305e-01 7.41955578e-01
      7.45422244e-01 7.48577774e-01 7.53199995e-01 7.56977797e-01
      7.60622203e-01 7.65422225e-01 7.64133334e-01 7.64977753e-01
      7.64177799e-01 7.63555527e-01 7.55066693e-01 7.49244452e-01
      7.52933323e-01 7.57688880e-01 7.70177782e-01 7.80355573e-01
      7.90355563e-01 8.05599988e-01 8.26622248e-01 8.53600025e-01
      8.83511126e-01 8.94977748e-01 9.03777778e-01 9.02488887e-01
      9.00399983e-01 9.00488913e-01 9.00444448e-01 8.99822235e-01
      9.01600003e-01 9.01288867e-01 9.02355552e-01 9.02844429e-01
      8.90933335e-01 8.68266642e-01 8.36888909e-01 8.00044417e-01
      7.77733326e-01 7.59644449e-01 7.50177801e-01 7.44444430e-01
      7.55866647e-01 7.71600008e-01 7.96800017e-01 8.20666671e-01
      8.35733354e-01 8.48844469e-01 8.59822214e-01 8.67644429e-01
      8.74933362e-01 8.80888879e-01 8.83599997e-01 8.85911107e-01
      8.86355579e-01 8.85111094e-01 8.83733332e-01 8.78755569e-01
      8.72666657e-01 8.60177755e-01 8.43022227e-01 8.20088863e-01
      8.09599996e-01 8.13822210e-01 8.27866673e-01 8.47022235e-01
      8.69155526e-01 8.90888870e-01 9.29511130e-01 9.75199997e-01
      9.92399991e-01 1.00742221e+00 1.00831115e+00 1.00960004e+00
      1.01253331e+00 1.01604450e+00 1.02079999e+00 1.02395558e+00
      1.02942216e+00 1.03546667e+00 1.04235554e+00 1.04684448e+00
      1.05022228e+00 1.05444443e+00 1.05777776e+00 1.06173337e+00
      1.06102228e+00 1.05373335e+00 1.05182219e+00 1.06280005e+00
      1.07782221e+00 1.10217774e+00 1.11262226e+00</_>
    <_>
      6.51200175e-01 6.56235814e-01 7.41264164e-01 9.99511123e-01
      1.00048888e+00 1.00724447e+00 1.01568890e+00 1.02440000e+00
      1.04746664e+00 1.07253337e+00 1.09742224e+00 1.09493339e+00
      1.09417772e+00 1.09302223e+00 1.09342217e+00 1.09319997e+00
      1.09426665e+00 1.09217775e+00 1.09022224e+00 1.08853328e+00
      1.10377777e+00 1.12017775e+00 1.13631105e+00 1.14893329e+00
      1.15946662e+00 1.17306662e+00 1.17288888e+00 1.17471111e+00
      1.17728889e+00 1.17417777e+00 1.17311108e+00 1.17248893e+00
      1.17120004e+00 1.16973329e+00 1.17111111e+00 1.16995561e+00
      1.17062223e+00 1.17177773e+00 1.17497778e+00 1.18071115e+00
      1.18648887e+00 1.19022226e+00 1.19453335e+00 1.20120001e+00
      1.21080005e+00 1.22013330e+00 1.23000002e+00 1.24106669e+00
      1.25133336e+00 1.26582217e+00 1.24937773e+00 1.23564446e+00
      1.22200000e+00 1.18408895e+00 1.14559996e+00 1.11008894e+00
      1.10017776e+00 1.09408891e+00 1.08679998e+00 1.09631109e+00
      1.10591114e+00 1.11897779e+00 1.12679994e+00 1.13835561e+00
      1.15111113e+00 1.15973330e+00 1.16799998e+00 1.17791116e+00
      1.18137777e+00 1.18488884e+00 1.18973339e+00 1.18497777e+00
      1.17964447e+00 1.17604446e+00 1.17217779e+00 1.16973329e+00
      1.16702223e+00 1.16600001e+00 1.16493332e+00 1.16435552e+00
      1.16142225e+00 1.15613329e+00 1.15488887e+00 1.15457773e+00
      1.15573335e+00 1.15564442e+00 1.15831113e+00 1.16040003e+00
      1.16248894e+00 1.16159999e+00 1.16168892e+00 1.16151106e+00
      1.16297781e+00 1.16520000e+00 1.16791105e+00 1.16111112e+00
      1.15631115e+00 1.15111113e+00 1.11182225e+00 1.07288885e+00
      1.03604448e+00 1.04617774e+00 1.05960000e+00 1.07151115e+00
      1.10102224e+00 1.13097775e+00 1.16093338e+00 1.20164442e+00
      1.24426663e+00 1.28586662e+00 1.29693329e+00 1.30924439e+00
      1.32164443e+00 1.31831110e+00 1.31320000e+00 1.31048894e+00
      1.30711114e+00 1.30217779e+00 1.29986668e+00 1.29551113e+00
      1.29124439e+00 1.28915560e+00 1.28391111e+00 1.28008890e+00
      1.27773333e+00 1.26999998e+00 1.26444447e+00 1.25764441e+00
      1.25337780e+00 1.24906671e+00 1.24520004e+00 1.23613334e+00
      1.22724450e+00 1.22048891e+00 1.20693338e+00 1.19404447e+00
      1.18408895e+00 1.17560005e+00 1.17106664e+00 1.16555560e+00
      1.14719999e+00 1.12973332e+00 1.11226666e+00 1.07644439e+00
      1.03991115e+00 1.00497782e+00 9.83422220e-01 9.62844431e-01
      9.42177773e-01 9.41999972e-01 9.42711115e-01 9.43777800e-01
      9.44133341e-01 1.50795555e+00 1.50911117e+00 1.51151109e+00
      1.51617777e+00 1.51897776e+00 1.50564444e+00 1.49213338e+00
      1.47906661e+00 1.45400000e+00 1.42871106e+00 1.40417778e+00
      1.37275553e+00 1.34195554e+00 1.31031108e+00 1.29244447e+00
      1.27320004e+00 1.25435555e+00 1.23528886e+00 1.21364439e+00
      1.19484448e+00 1.20324445e+00 1.21417773e+00 1.22239995e+00
      1.22622228e+00 1.23151112e+00 1.23506665e+00 1.24511111e+00
      1.25266671e+00 1.26275551e+00 1.25320005e+00 1.24417782e+00
      1.23604441e+00 1.22697783e+00 1.21822226e+00 1.21039999e+00
      1.21519995e+00 1.22177780e+00 1.22844446e+00 1.22462225e+00
      1.22395551e+00 1.22119999e+00 1.18426669e+00 1.14893329e+00
      1.11182225e+00 1.09773338e+00 1.08275557e+00 1.06760001e+00
      1.07106662e+00 1.07377779e+00 1.07657778e+00 1.07693338e+00
      1.07635558e+00 1.07644439e+00 1.08346665e+00 1.09080005e+00
      1.09728885e+00 1.09644449e+00 1.09480000e+00 1.09408891e+00
      1.08955550e+00 1.08702219e+00 1.08355558e+00 1.07866669e+00
      1.07431114e+00 1.07048893e+00 1.08248889e+00 1.09368885e+00
      1.10626662e+00 1.12728894e+00 1.14724445e+00 1.16746664e+00
      1.19004440e+00 1.21168888e+00 1.23426664e+00 1.24795556e+00
      1.26266670e+00 1.27653337e+00 1.28084445e+00 1.28524446e+00
      1.28893328e+00 1.29142225e+00 1.29364443e+00 1.29693329e+00
      1.29355550e+00 1.29044449e+00 1.28711116e+00 1.24617779e+00
      1.20448887e+00 1.16306663e+00 1.12977779e+00 1.09697783e+00
      1.06208885e+00 1.06426668e+00 1.06351113e+00 1.06568885e+00
      1.09457779e+00 1.12457776e+00 1.15373337e+00 1.16404450e+00
      1.17084444e+00 1.17973328e+00 1.18017781e+00 1.17871106e+00
      1.17906666e+00 1.17386663e+00 1.16822219e+00 1.16297781e+00
      1.15097773e+00 1.13964450e+00 1.12813330e+00 1.09555554e+00
      1.06511116e+00 1.03359997e+00 1.01191115e+00 9.88177776e-01
      9.66533363e-01 9.87066686e-01 1.00902224e+00 1.03013337e+00
      1.06519997e+00 1.10004449e+00 1.13462222e+00 1.14204443e+00
      1.14951110e+00 1.15573335e+00 1.14871109e+00 1.13848889e+00
      1.13164449e+00 1.12133336e+00 1.11062217e+00 1.10097778e+00
      1.08973336e+00 1.08022225e+00 1.06937778e+00 1.05306661e+00
      1.03724444e+00 1.01973331e+00 9.94977772e-01 9.68933344e-01
      9.45022225e-01 9.15377796e-01 8.88711095e-01 8.60177755e-01
      8.61288905e-01 8.61111104e-01 8.60977769e-01 8.66711140e-01
      8.73333335e-01 8.78888905e-01 8.79155576e-01</_>
    <_>
      4.34832245e-01 4.34889227e-01 4.83463347e-01 7.94666648e-01
      7.93733358e-01 7.97822237e-01 7.99333334e-01 8.01955581e-01
      8.05022240e-01 8.03822219e-01 8.05022240e-01 8.05244446e-01
      7.88577795e-01 7.71200001e-01 7.52533317e-01 7.43511140e-01
      7.44000018e-01 7.40400016e-01 7.40488887e-01 7.39422202e-01
      7.36933351e-01 7.37333357e-01 7.50577807e-01 7.69822240e-01
      7.88177788e-01 8.01911116e-01 8.05777788e-01 8.09155583e-01
      8.12311113e-01 8.09288859e-01 8.04355562e-01 8.00844431e-01
      8.02133322e-01 8.10888886e-01 8.18222225e-01 8.25244427e-01
      8.24977756e-01 8.24844420e-01 8.23955536e-01 8.21066678e-01
      8.18088889e-01 8.13777804e-01 8.10888886e-01 8.13822210e-01
      8.16266656e-01 8.19999993e-01 8.23155582e-01 8.27066660e-01
      8.31111133e-01 8.34133327e-01 8.35866690e-01 8.37866664e-01
      8.39466691e-01 8.23911130e-01 8.10000002e-01 7.94133306e-01
      7.68933356e-01 7.35333323e-01 7.04133332e-01 6.77111089e-01
      6.63555562e-01 6.51777804e-01 6.37688875e-01 6.44177794e-01
      6.53066695e-01 6.62844419e-01 6.75244451e-01 6.90355539e-01
      7.05911100e-01 7.20666647e-01 7.30533361e-01 7.40222216e-01
      7.49688864e-01 7.55466640e-01 7.58222222e-01 7.60977805e-01
      7.62399971e-01 7.60533333e-01 7.58444428e-01 7.56488860e-01
      7.53422201e-01 7.50266671e-01 7.46888876e-01 7.45422244e-01
      7.46622205e-01 7.48844445e-01 7.49288917e-01 7.49288917e-01
      7.49688864e-01 7.48222232e-01 7.48044431e-01 7.46266663e-01
      7.45333314e-01 7.44533360e-01 7.44044423e-01 7.43200004e-01
      7.43066669e-01 7.40444422e-01 7.35688865e-01 7.31822193e-01
      7.20755577e-01 6.99822247e-01 6.78888917e-01 6.57955527e-01
      6.52711093e-01 6.49422228e-01 6.45288885e-01 6.53288901e-01
      6.71199977e-01 6.89466655e-01 7.08888888e-01 7.37288892e-01
      7.62666643e-01 7.90444434e-01 8.05644453e-01 8.16399992e-01
      8.26933324e-01 8.33644450e-01 8.32444429e-01 8.30488861e-01
      8.28977764e-01 8.26977789e-01 8.25155556e-01 8.23288918e-01
      8.23066652e-01 8.24533343e-01 8.26711118e-01 8.27111125e-01
      8.23555529e-01 8.17644417e-01 8.14000010e-01 8.07511091e-01
      8.00977767e-01 7.94044435e-01 7.86444426e-01 7.76133358e-01
      7.66755581e-01 7.55599976e-01 7.45822251e-01 7.36400008e-01
      7.26622224e-01 7.23911107e-01 7.31822193e-01 7.37777770e-01
      7.45022237e-01 7.42177784e-01 7.38711119e-01 7.36222208e-01
      7.33288884e-01 7.31999993e-01 7.28933334e-01 7.26933360e-01
      7.27422237e-01 6.82533324e-01 6.82933331e-01 6.80888891e-01
      6.78444445e-01 6.76622212e-01 6.85733318e-01 7.12844431e-01
      7.40400016e-01 7.67377794e-01 7.83422232e-01 8.01866651e-01
      8.18711102e-01 8.23422194e-01 8.20444465e-01 8.18044424e-01
      8.10266674e-01 7.82577753e-01 7.52622247e-01 7.23688900e-01
      7.33688891e-01 7.57244468e-01 7.78355539e-01 7.99688876e-01
      8.07511091e-01 8.18000019e-01 8.26711118e-01 8.18577766e-01
      8.05244446e-01 7.94044435e-01 7.85955548e-01 7.82044470e-01
      7.77911127e-01 7.75866687e-01 7.83822238e-01 7.91288912e-01
      8.00133348e-01 8.09066653e-01 8.16844463e-01 8.25111091e-01
      8.29644442e-01 8.26533318e-01 8.22755575e-01 8.20977807e-01
      8.07022214e-01 7.92844415e-01 7.77199984e-01 7.64488876e-01
      7.53111124e-01 7.42044449e-01 7.31866658e-01 7.32177794e-01
      7.31599987e-01 7.31688917e-01 7.32133329e-01 7.30355561e-01
      7.29555547e-01 7.28666663e-01 7.31822193e-01 7.33911097e-01
      7.36533344e-01 7.36311138e-01 7.34711111e-01 7.34222233e-01
      7.31066644e-01 7.25866675e-01 7.19466686e-01 7.13777781e-01
      7.16088891e-01 7.18844473e-01 7.21244454e-01 7.27866650e-01
      7.36222208e-01 7.45777786e-01 7.56666660e-01 7.76666641e-01
      7.96133339e-01 8.15999985e-01 8.28400016e-01 8.42622221e-01
      8.54799986e-01 8.62133324e-01 8.62222195e-01 8.62266660e-01
      8.62088919e-01 8.62622201e-01 8.64400029e-01 8.64488900e-01
      8.63155544e-01 8.60400021e-01 8.58577788e-01 8.49644423e-01
      8.22844446e-01 7.94799984e-01 7.66533315e-01 7.43955553e-01
      7.23599970e-01 7.03999996e-01 6.94266677e-01 7.05155551e-01
      7.16088891e-01 7.26311088e-01 7.43111134e-01 7.58755565e-01
      7.75377750e-01 7.85911083e-01 7.92800009e-01 7.97288895e-01
      8.03244472e-01 8.00400019e-01 7.98799992e-01 7.97377765e-01
      7.93644428e-01 7.88088918e-01 7.83066690e-01 7.73866653e-01
      7.56844461e-01 7.41333306e-01 7.23288894e-01 7.02755570e-01
      6.81733310e-01 6.59377754e-01 6.51644468e-01 6.60399973e-01
      6.68444455e-01 6.77600026e-01 7.03066647e-01 7.26000011e-01
      7.50977755e-01 7.64800012e-01 7.72666693e-01 7.80133307e-01
      7.86444426e-01 7.83288896e-01 7.80755579e-01 7.77288914e-01
      7.76355565e-01 7.73777783e-01 7.72533357e-01 7.68133342e-01
      7.58933306e-01 7.50755548e-01 7.41333306e-01 7.28177786e-01
      7.10933328e-01 6.96622193e-01 6.91377759e-01 6.93688869e-01
      6.96266651e-01 6.96888864e-01 6.97955549e-01</_>
    <_>
      6.00158632e-01 6.08882785e-01 6.91443980e-01 1.01591110e+00
      1.01573336e+00 1.00995553e+00 1.00617778e+00 1.00360000e+00
      1.00328887e+00 1.00404441e+00 1.00026667e+00 9.97377753e-01
      9.94977772e-01 1.01204443e+00 1.02688885e+00 1.04653335e+00
      1.06364441e+00 1.08577776e+00 1.09191108e+00 1.09493339e+00
      1.09586668e+00 1.09266663e+00 1.08679998e+00 1.08182228e+00
      1.07280004e+00 1.06413329e+00 1.05639994e+00 1.04831111e+00
      1.04186666e+00 1.03840005e+00 1.03431106e+00 1.03271115e+00
      1.02768886e+00 1.02524447e+00 1.02888894e+00 1.03457773e+00
      1.04142225e+00 1.05453336e+00 1.06808889e+00 1.08324444e+00
      1.09786665e+00 1.11479998e+00 1.12786663e+00 1.13928890e+00
      1.15053332e+00 1.12528884e+00 1.10026670e+00 1.07413328e+00
      1.04817772e+00 1.01862228e+00 1.00653338e+00 9.99244452e-01
      9.91733313e-01 1.00062227e+00 1.00888884e+00 1.01960003e+00
      1.03719997e+00 1.05408883e+00 1.06586671e+00 1.07382226e+00
      1.08159995e+00 1.09466672e+00 1.10640001e+00 1.11702228e+00
      1.12160003e+00 1.12626672e+00 1.12622225e+00 1.12404442e+00
      1.12066662e+00 1.12417781e+00 1.12808883e+00 1.12991107e+00
      1.12608886e+00 1.12186670e+00 1.11875558e+00 1.11564445e+00
      1.11457777e+00 1.11280000e+00 1.11275554e+00 1.11191106e+00
      1.11173332e+00 1.11266673e+00 1.11195552e+00 1.11293328e+00
      1.11302221e+00 1.11360002e+00 1.11368895e+00 1.11422217e+00
      1.11386669e+00 1.11137784e+00 1.10968888e+00 1.10728884e+00
      1.10555553e+00 1.08391106e+00 1.05764449e+00 1.02986670e+00
      1.00951111e+00 9.86577749e-01 9.84044433e-01 1.00533330e+00
      1.02542222e+00 1.05008888e+00 1.07599998e+00 1.10088885e+00
      1.14026666e+00 1.17799997e+00 1.20862222e+00 1.22724450e+00
      1.24568892e+00 1.24666667e+00 1.24084449e+00 1.23404443e+00
      1.22986662e+00 1.22426665e+00 1.22168887e+00 1.21942222e+00
      1.21688890e+00 1.21360004e+00 1.20986664e+00 1.20497775e+00
      1.20026672e+00 1.19462228e+00 1.18853331e+00 1.18124449e+00
      1.17364442e+00 1.16542220e+00 1.15906668e+00 1.15133333e+00
      1.14208889e+00 1.13133335e+00 1.12155557e+00 1.11160004e+00
      1.10053337e+00 1.08991110e+00 1.07822227e+00 1.06537783e+00
      1.05186665e+00 1.03942227e+00 1.02466667e+00 1.00635552e+00
      9.89199996e-01 9.67511117e-01 9.45511103e-01 9.20888901e-01
      8.98088872e-01 8.76577795e-01 8.57200027e-01 8.50977778e-01
      8.45422208e-01 8.37199986e-01 8.30799997e-01 8.23022246e-01
      8.23066652e-01 8.79999995e-01 8.80977750e-01 8.87822211e-01
      8.93688917e-01 9.10222232e-01 9.36088860e-01 9.62755561e-01
      9.67822194e-01 9.70088899e-01 9.70000029e-01 9.68400002e-01
      9.67733324e-01 9.66533363e-01 9.66444433e-01 9.68266666e-01
      9.69955564e-01 9.72177804e-01 9.76266682e-01 1.00008893e+00
      1.02288890e+00 1.04751110e+00 1.06728888e+00 1.09111106e+00
      1.10284448e+00 1.11262226e+00 1.12275553e+00 1.12862217e+00
      1.13493335e+00 1.14173329e+00 1.14675558e+00 1.15297782e+00
      1.15857780e+00 1.16248894e+00 1.16737783e+00 1.17075551e+00
      1.17519999e+00 1.17711115e+00 1.17026663e+00 1.16520000e+00
      1.14888895e+00 1.12813330e+00 1.10693336e+00 1.08800006e+00
      1.06791115e+00 1.05431116e+00 1.05320001e+00 1.05231106e+00
      1.05222225e+00 1.05208886e+00 1.05217779e+00 1.05373335e+00
      1.05444443e+00 1.05724442e+00 1.06306672e+00 1.06719995e+00
      1.07035553e+00 1.07137775e+00 1.07044446e+00 1.06648886e+00
      1.06075561e+00 1.05444443e+00 1.04524446e+00 1.03617775e+00
      1.03222227e+00 1.03497779e+00 1.03693330e+00 1.04808891e+00
      1.06097782e+00 1.07577777e+00 1.09986663e+00 1.12377775e+00
      1.14577782e+00 1.16942227e+00 1.19275558e+00 1.20946670e+00
      1.22577775e+00 1.24004447e+00 1.24577773e+00 1.25248885e+00
      1.25502217e+00 1.25777781e+00 1.25973332e+00 1.26088893e+00
      1.26248884e+00 1.26164448e+00 1.25448895e+00 1.24800003e+00
      1.22533333e+00 1.18697774e+00 1.14608884e+00 1.11662221e+00
      1.08440006e+00 1.05884445e+00 1.04777777e+00 1.03844440e+00
      1.04400003e+00 1.07275558e+00 1.09920001e+00 1.12195551e+00
      1.13826668e+00 1.15826666e+00 1.16808891e+00 1.17911112e+00
      1.18560004e+00 1.18551111e+00 1.18537784e+00 1.18182218e+00
      1.17671108e+00 1.17164445e+00 1.16315556e+00 1.15244448e+00
      1.13924444e+00 1.11826670e+00 1.09657776e+00 1.06564450e+00
      1.02862227e+00 9.91111100e-01 9.86622214e-01 9.80799973e-01
      9.82711136e-01 9.99288917e-01 1.01488888e+00 1.04653335e+00
      1.08480000e+00 1.12413335e+00 1.13133335e+00 1.13426661e+00
      1.13720000e+00 1.12755561e+00 1.11804450e+00 1.10791111e+00
      1.09924448e+00 1.09128892e+00 1.07768893e+00 1.06613338e+00
      1.05280006e+00 1.04062223e+00 1.02648890e+00 1.01004446e+00
      9.90888894e-01 9.73244429e-01 9.48711097e-01 9.24799979e-01
      8.98800015e-01 8.66088867e-01 8.33155572e-01 8.13688874e-01
      8.05866659e-01 7.99022198e-01 7.99511135e-01</_>
    <_>
      4.38385874e-01 4.37563568e-01 4.79160964e-01 8.06933343e-01
      8.06577802e-01 7.96844423e-01 7.86266685e-01 7.76088893e-01
      7.63999999e-01 7.51999974e-01 7.38977790e-01 7.31599987e-01
      7.25511134e-01 7.19555557e-01 7.24844456e-01 7.38933325e-01
      7.52444446e-01 7.64933348e-01 7.75288880e-01 7.85111129e-01
      7.92355537e-01 7.95377791e-01 7.95777798e-01 7.99111128e-01
      8.02888870e-01 8.08888912e-01 8.13377798e-01 8.17600012e-01
      8.21111083e-01 8.24933350e-01 8.28533351e-01 8.31777751e-01
      8.34444463e-01 8.38711083e-01 8.42711091e-01 8.46977770e-01
      8.49822223e-01 8.51022243e-01 8.52044463e-01 8.50533307e-01
      8.49955559e-01 8.46800029e-01 8.36355567e-01 8.12799990e-01
      7.90088892e-01 7.64844418e-01 7.29866683e-01 6.98044419e-01
      6.69155538e-01 6.66266680e-01 6.62400007e-01 6.59200013e-01
      6.73600018e-01 6.84800029e-01 6.97066665e-01 7.07422197e-01
      7.16977775e-01 7.27733314e-01 7.35599995e-01 7.42844462e-01
      7.50488877e-01 7.53644466e-01 7.53733337e-01 7.53911138e-01
      7.53511131e-01 7.51244426e-01 7.49244452e-01 7.46311128e-01
      7.44533360e-01 7.41155565e-01 7.39422202e-01 7.40088880e-01
      7.41733313e-01 7.42311120e-01 7.42799997e-01 7.42622197e-01
      7.42977798e-01 7.43822217e-01 7.45511115e-01 7.47733355e-01
      7.44088888e-01 7.41333306e-01 7.37377763e-01 7.20755577e-01
      7.00755537e-01 6.80666685e-01 6.71422243e-01 6.64933324e-01
      6.58888876e-01 6.68888867e-01 6.90888882e-01 7.13955581e-01
      7.39111125e-01 7.66533315e-01 7.94088900e-01 8.13644469e-01
      8.18755567e-01 8.20933342e-01 8.24311137e-01 8.19955528e-01
      8.16311121e-01 8.12666655e-01 8.10711086e-01 8.09555531e-01
      8.08844447e-01 8.06088865e-01 8.03022206e-01 8.01066637e-01
      7.98044443e-01 7.96622217e-01 7.94399977e-01 7.89466679e-01
      7.85022199e-01 7.78933346e-01 7.72577763e-01 7.64311135e-01
      7.55422235e-01 7.46044457e-01 7.37155557e-01 7.26577759e-01
      7.17244446e-01 7.07244456e-01 6.98044419e-01 6.92755580e-01
      7.08222210e-01 7.21866667e-01 7.37022221e-01 7.45555580e-01
      7.58044422e-01 7.66533315e-01 7.55644441e-01 7.41466641e-01
      7.29555547e-01 7.17244446e-01 7.07733333e-01 6.97333336e-01
      7.05866694e-01 7.25333333e-01 7.43422210e-01 7.64488876e-01
      7.87377775e-01 8.10577750e-01 8.22222233e-01 8.24177802e-01
      8.24133337e-01 8.25866640e-01 8.27511132e-01 8.28133345e-01
      8.29644442e-01 8.30266654e-01 8.29955578e-01 8.30088913e-01
      8.30177784e-01 8.15733314e-01 8.14800024e-01 7.82266676e-01
      7.48266637e-01 7.14577794e-01 6.88533306e-01 6.71422243e-01
      6.47511125e-01 6.34488881e-01 6.23199999e-01 6.14000022e-01
      6.14444435e-01 6.24666691e-01 6.34355545e-01 6.54177785e-01
      6.88666642e-01 7.21688867e-01 7.45511115e-01 7.45955527e-01
      7.47288883e-01 7.45555580e-01 7.39555538e-01 7.32044458e-01
      7.25822210e-01 7.21511126e-01 7.14577794e-01 7.12133348e-01
      7.18177795e-01 7.30133355e-01 7.39244461e-01 7.49822199e-01
      7.61377752e-01 7.72622228e-01 7.83599973e-01 7.95955539e-01
      8.06800008e-01 8.18266690e-01 8.29999983e-01 8.39733362e-01
      8.46133351e-01 8.45377803e-01 8.44533324e-01 8.45066667e-01
      8.43066692e-01 8.44533324e-01 8.42133343e-01 8.31777751e-01
      8.21733356e-01 8.10711086e-01 7.90311098e-01 7.74488866e-01
      7.54933357e-01 7.53733337e-01 7.52355576e-01 7.52266645e-01
      7.51066685e-01 7.50800014e-01 7.49599993e-01 7.48977780e-01
      7.48977780e-01 7.49244452e-01 7.49066651e-01 7.48933315e-01
      7.49422193e-01 7.46977806e-01 7.41111100e-01 7.34311104e-01
      7.30888903e-01 7.34311104e-01 7.36044466e-01 7.41733313e-01
      7.57155538e-01 7.73066640e-01 7.88533330e-01 8.05155575e-01
      8.21377754e-01 8.37288916e-01 8.45066667e-01 8.53466690e-01
      8.60622227e-01 8.61777782e-01 8.61333311e-01 8.61733317e-01
      8.61466646e-01 8.62488866e-01 8.64044428e-01 8.56711090e-01
      8.43911111e-01 8.31155539e-01 8.10933352e-01 7.80488908e-01
      7.52133310e-01 7.30000019e-01 7.29155540e-01 7.27955580e-01
      7.31822193e-01 7.52933323e-01 7.75688887e-01 7.97244430e-01
      8.01911116e-01 8.07066679e-01 8.11155558e-01 8.08755577e-01
      8.05155575e-01 8.02222252e-01 7.97999978e-01 7.95244455e-01
      7.91111112e-01 7.85288870e-01 7.78400004e-01 7.70755529e-01
      7.58622229e-01 7.43200004e-01 7.27955580e-01 7.19466686e-01
      7.22622216e-01 7.24799991e-01 7.32666671e-01 7.54177749e-01
      7.74977803e-01 7.94044435e-01 7.99511135e-01 8.07022214e-01
      8.13733339e-01 8.07244420e-01 8.03777754e-01 7.98888862e-01
      7.94311106e-01 7.88622200e-01 7.84533322e-01 7.75688887e-01
      7.67244458e-01 7.59199977e-01 7.45555580e-01 7.29422212e-01
      7.14711130e-01 7.07777798e-01 7.08711088e-01 7.09733307e-01
      7.13999987e-01 7.21911132e-01 7.29555547e-01 7.38799989e-01
      7.49022245e-01 7.59555578e-01 7.65955567e-01 7.49333322e-01
      7.32177794e-01 7.18355536e-01 7.17644453e-01</_>
    <_>
      6.93971753e-01 6.92114830e-01 7.66898453e-01 1.44564450e+00
      1.44551110e+00 1.44640005e+00 1.44791114e+00 1.44928885e+00
      1.45013332e+00 1.45035553e+00 1.44973338e+00 1.44942224e+00
      1.44324446e+00 1.43182218e+00 1.42137778e+00 1.41066670e+00
      1.38955557e+00 1.37004447e+00 1.34937775e+00 1.33075559e+00
      1.31631112e+00 1.29906666e+00 1.28364444e+00 1.28231108e+00
      1.28342223e+00 1.28368890e+00 1.28768885e+00 1.29493332e+00
      1.30315554e+00 1.31137776e+00 1.30786669e+00 1.30017781e+00
      1.29262221e+00 1.28457773e+00 1.28048885e+00 1.27546668e+00
      1.27088892e+00 1.26595557e+00 1.26142228e+00 1.25648892e+00
      1.25244439e+00 1.24982226e+00 1.24808884e+00 1.24653327e+00
      1.24715555e+00 1.24937773e+00 1.25275552e+00 1.25657773e+00
      1.26217782e+00 1.27088892e+00 1.27839994e+00 1.28253329e+00
      1.27751112e+00 1.27333331e+00 1.26675558e+00 1.23702228e+00
      1.19564450e+00 1.15613329e+00 1.11973333e+00 1.11262226e+00
      1.10604441e+00 1.09813333e+00 1.10355556e+00 1.11697781e+00
      1.13057780e+00 1.14582217e+00 1.15568888e+00 1.16755557e+00
      1.17862225e+00 1.18813336e+00 1.19408894e+00 1.20039999e+00
      1.20662224e+00 1.20306671e+00 1.19888890e+00 1.19488883e+00
      1.19120002e+00 1.18791115e+00 1.18453336e+00 1.18151116e+00
      1.17920005e+00 1.17666662e+00 1.17355561e+00 1.17075551e+00
      1.16844440e+00 1.16604447e+00 1.16306663e+00 1.16151106e+00
      1.16111112e+00 1.15928888e+00 1.15906668e+00 1.15897775e+00
      1.15946662e+00 1.16159999e+00 1.16062224e+00 1.15951109e+00
      1.15662217e+00 1.15520000e+00 1.12946665e+00 1.10057783e+00
      1.07146668e+00 1.05195558e+00 1.05639994e+00 1.06271112e+00
      1.06791115e+00 1.09191108e+00 1.12297773e+00 1.15413332e+00
      1.18560004e+00 1.22164440e+00 1.25631106e+00 1.29164445e+00
      1.30480003e+00 1.30351114e+00 1.30106664e+00 1.30008888e+00
      1.29395556e+00 1.28799999e+00 1.28204441e+00 1.27622223e+00
      1.27217782e+00 1.26893330e+00 1.26466668e+00 1.25355554e+00
      1.24075556e+00 1.22920001e+00 1.21808887e+00 1.20853329e+00
      1.20146668e+00 1.19142222e+00 1.18288887e+00 1.17426670e+00
      1.16568887e+00 1.15568888e+00 1.14555550e+00 1.13448894e+00
      1.12444448e+00 1.11880004e+00 1.11586666e+00 1.11333334e+00
      1.11160004e+00 1.10160005e+00 1.09111106e+00 1.08146667e+00
      1.06404448e+00 1.03462219e+00 1.00648892e+00 9.78088915e-01
      9.73066688e-01 9.69733357e-01 9.68755543e-01 9.67466652e-01
      9.67111111e-01 1.41737783e+00 1.41862226e+00 1.42208886e+00
      1.42764449e+00 1.43457782e+00 1.43711114e+00 1.42835557e+00
      1.41875553e+00 1.40991116e+00 1.38457775e+00 1.35328889e+00
      1.31853330e+00 1.28480005e+00 1.26017773e+00 1.23515558e+00
      1.20879996e+00 1.18804443e+00 1.17253339e+00 1.15871108e+00
      1.14297783e+00 1.14284444e+00 1.14497781e+00 1.14711106e+00
      1.15195560e+00 1.16346669e+00 1.17573333e+00 1.18799996e+00
      1.20022225e+00 1.21306670e+00 1.22617781e+00 1.23862219e+00
      1.24355555e+00 1.24880004e+00 1.25355554e+00 1.25395560e+00
      1.25022221e+00 1.24795556e+00 1.24440002e+00 1.24706662e+00
      1.25080001e+00 1.25382221e+00 1.25142217e+00 1.24235559e+00
      1.23262227e+00 1.22071111e+00 1.19137776e+00 1.15893328e+00
      1.12395561e+00 1.09826672e+00 1.09102225e+00 1.08324444e+00
      1.07555556e+00 1.07560003e+00 1.07760000e+00 1.08071113e+00
      1.08346665e+00 1.09008884e+00 1.09875560e+00 1.10448885e+00
      1.10720003e+00 1.10360003e+00 1.10022223e+00 1.09715557e+00
      1.08888888e+00 1.08080006e+00 1.07271111e+00 1.07217777e+00
      1.08244443e+00 1.09226668e+00 1.10284448e+00 1.12284446e+00
      1.14377773e+00 1.16471112e+00 1.18684447e+00 1.21017778e+00
      1.23253334e+00 1.25600004e+00 1.26653337e+00 1.27253330e+00
      1.27768886e+00 1.28328884e+00 1.28604448e+00 1.29022217e+00
      1.29382217e+00 1.29577780e+00 1.29573333e+00 1.29586661e+00
      1.29600000e+00 1.25777781e+00 1.21973336e+00 1.18040001e+00
      1.15364444e+00 1.13546669e+00 1.12084448e+00 1.10346663e+00
      1.12360001e+00 1.14964449e+00 1.17662227e+00 1.19964445e+00
